user_id,dim_0,dim_1,dim_2,dim_3,dim_4,dim_5,dim_6,dim_7,dim_8,dim_9,dim_10,dim_11,dim_12,dim_13,dim_14,dim_15,dim_16,dim_17,dim_18,dim_19,dim_20,dim_21,dim_22,dim_23,dim_24,dim_25,dim_26,dim_27,dim_28,dim_29,dim_30,dim_31,dim_32,dim_33,dim_34,dim_35,dim_36,dim_37,dim_38,dim_39,dim_40,dim_41,dim_42,dim_43,dim_44,dim_45,dim_46,dim_47,dim_48,dim_49,dim_50,dim_51,dim_52,dim_53,dim_54,dim_55,dim_56,dim_57,dim_58,dim_59,dim_60,dim_61,dim_62,dim_63,dim_64,dim_65,dim_66,dim_67,dim_68,dim_69,dim_70,dim_71,dim_72,dim_73,dim_74,dim_75,dim_76,dim_77,dim_78,dim_79,dim_80,dim_81,dim_82,dim_83,dim_84,dim_85,dim_86,dim_87,dim_88,dim_89,dim_90,dim_91,dim_92,dim_93,dim_94,dim_95,dim_96,dim_97,dim_98,dim_99,dim_100,dim_101,dim_102,dim_103,dim_104,dim_105,dim_106,dim_107,dim_108,dim_109,dim_110,dim_111,dim_112,dim_113,dim_114,dim_115,dim_116,dim_117,dim_118,dim_119,dim_120,dim_121,dim_122,dim_123,dim_124,dim_125,dim_126,dim_127,dim_128,dim_129,dim_130,dim_131,dim_132,dim_133,dim_134,dim_135,dim_136,dim_137,dim_138,dim_139,dim_140,dim_141,dim_142,dim_143,dim_144,dim_145,dim_146,dim_147,dim_148,dim_149,dim_150,dim_151,dim_152,dim_153,dim_154,dim_155,dim_156,dim_157,dim_158,dim_159,dim_160,dim_161,dim_162,dim_163,dim_164,dim_165,dim_166,dim_167,dim_168,dim_169,dim_170,dim_171,dim_172,dim_173,dim_174,dim_175,dim_176,dim_177,dim_178,dim_179,dim_180,dim_181,dim_182,dim_183,dim_184,dim_185,dim_186,dim_187,dim_188,dim_189,dim_190,dim_191,dim_192,dim_193,dim_194,dim_195,dim_196,dim_197,dim_198,dim_199,dim_200,dim_201,dim_202,dim_203,dim_204,dim_205,dim_206,dim_207,dim_208,dim_209,dim_210,dim_211,dim_212,dim_213,dim_214,dim_215,dim_216,dim_217,dim_218,dim_219,dim_220,dim_221,dim_222,dim_223,dim_224,dim_225,dim_226,dim_227,dim_228,dim_229,dim_230,dim_231,dim_232,dim_233,dim_234,dim_235,dim_236,dim_237,dim_238,dim_239,dim_240,dim_241,dim_242,dim_243,dim_244,dim_245,dim_246,dim_247,dim_248,dim_249,dim_250,dim_251,dim_252,dim_253,dim_254,dim_255,dim_256,dim_257,dim_258,dim_259,dim_260,dim_261,dim_262,dim_263,dim_264,dim_265,dim_266,dim_267,dim_268,dim_269,dim_270,dim_271,dim_272,dim_273,dim_274,dim_275,dim_276,dim_277,dim_278,dim_279,dim_280,dim_281,dim_282,dim_283,dim_284,dim_285,dim_286,dim_287,dim_288,dim_289,dim_290,dim_291,dim_292,dim_293,dim_294,dim_295,dim_296,dim_297,dim_298,dim_299,dim_300,dim_301,dim_302,dim_303,dim_304,dim_305,dim_306,dim_307,dim_308,dim_309,dim_310,dim_311,dim_312,dim_313,dim_314,dim_315,dim_316,dim_317,dim_318,dim_319,dim_320,dim_321,dim_322,dim_323,dim_324,dim_325,dim_326,dim_327,dim_328,dim_329,dim_330,dim_331,dim_332,dim_333,dim_334,dim_335,dim_336,dim_337,dim_338,dim_339,dim_340,dim_341,dim_342,dim_343,dim_344,dim_345,dim_346,dim_347,dim_348,dim_349,dim_350,dim_351,dim_352,dim_353,dim_354,dim_355,dim_356,dim_357,dim_358,dim_359,dim_360,dim_361,dim_362,dim_363,dim_364,dim_365,dim_366,dim_367,dim_368,dim_369,dim_370,dim_371,dim_372,dim_373,dim_374,dim_375,dim_376,dim_377,dim_378,dim_379,dim_380,dim_381,dim_382,dim_383,dim_384,dim_385,dim_386,dim_387,dim_388,dim_389,dim_390,dim_391,dim_392,dim_393,dim_394,dim_395,dim_396,dim_397,dim_398,dim_399,dim_400,dim_401,dim_402,dim_403,dim_404,dim_405,dim_406,dim_407,dim_408,dim_409,dim_410,dim_411,dim_412,dim_413,dim_414,dim_415,dim_416,dim_417,dim_418,dim_419,dim_420,dim_421,dim_422,dim_423,dim_424,dim_425,dim_426,dim_427,dim_428,dim_429,dim_430,dim_431,dim_432,dim_433,dim_434,dim_435,dim_436,dim_437,dim_438,dim_439,dim_440,dim_441,dim_442,dim_443,dim_444,dim_445,dim_446,dim_447,dim_448,dim_449,dim_450,dim_451,dim_452,dim_453,dim_454,dim_455,dim_456,dim_457,dim_458,dim_459,dim_460,dim_461,dim_462,dim_463,dim_464,dim_465,dim_466,dim_467,dim_468,dim_469,dim_470,dim_471,dim_472,dim_473,dim_474,dim_475,dim_476,dim_477,dim_478,dim_479,dim_480,dim_481,dim_482,dim_483,dim_484,dim_485,dim_486,dim_487,dim_488,dim_489,dim_490,dim_491,dim_492,dim_493,dim_494,dim_495,dim_496,dim_497,dim_498,dim_499,dim_500,dim_501,dim_502,dim_503,dim_504,dim_505,dim_506,dim_507,dim_508,dim_509,dim_510,dim_511,dim_512,dim_513,dim_514,dim_515,dim_516,dim_517,dim_518,dim_519,dim_520,dim_521,dim_522,dim_523,dim_524,dim_525,dim_526,dim_527,dim_528,dim_529,dim_530,dim_531,dim_532,dim_533,dim_534,dim_535,dim_536,dim_537,dim_538,dim_539,dim_540,dim_541,dim_542,dim_543,dim_544,dim_545,dim_546,dim_547,dim_548,dim_549,dim_550,dim_551,dim_552,dim_553,dim_554,dim_555,dim_556,dim_557,dim_558,dim_559,dim_560,dim_561,dim_562,dim_563,dim_564,dim_565,dim_566,dim_567,dim_568,dim_569,dim_570,dim_571,dim_572,dim_573,dim_574,dim_575,dim_576,dim_577,dim_578,dim_579,dim_580,dim_581,dim_582,dim_583,dim_584,dim_585,dim_586,dim_587,dim_588,dim_589,dim_590,dim_591,dim_592,dim_593,dim_594,dim_595,dim_596,dim_597,dim_598,dim_599,dim_600,dim_601,dim_602,dim_603,dim_604,dim_605,dim_606,dim_607,dim_608,dim_609,dim_610,dim_611,dim_612,dim_613,dim_614,dim_615,dim_616,dim_617,dim_618,dim_619,dim_620,dim_621,dim_622,dim_623,dim_624,dim_625,dim_626,dim_627,dim_628,dim_629,dim_630,dim_631,dim_632,dim_633,dim_634,dim_635,dim_636,dim_637,dim_638,dim_639,dim_640,dim_641,dim_642,dim_643,dim_644,dim_645,dim_646,dim_647,dim_648,dim_649,dim_650,dim_651,dim_652,dim_653,dim_654,dim_655,dim_656,dim_657,dim_658,dim_659,dim_660,dim_661,dim_662,dim_663,dim_664,dim_665,dim_666,dim_667,dim_668,dim_669,dim_670,dim_671,dim_672,dim_673,dim_674,dim_675,dim_676,dim_677,dim_678,dim_679,dim_680,dim_681,dim_682,dim_683,dim_684,dim_685,dim_686,dim_687,dim_688,dim_689,dim_690,dim_691,dim_692,dim_693,dim_694,dim_695,dim_696,dim_697,dim_698,dim_699,dim_700,dim_701,dim_702,dim_703,dim_704,dim_705,dim_706,dim_707,dim_708,dim_709,dim_710,dim_711,dim_712,dim_713,dim_714,dim_715,dim_716,dim_717,dim_718,dim_719,dim_720,dim_721,dim_722,dim_723,dim_724,dim_725,dim_726,dim_727,dim_728,dim_729,dim_730,dim_731,dim_732,dim_733,dim_734,dim_735,dim_736,dim_737,dim_738,dim_739,dim_740,dim_741,dim_742,dim_743,dim_744,dim_745,dim_746,dim_747,dim_748,dim_749,dim_750,dim_751,dim_752,dim_753,dim_754,dim_755,dim_756,dim_757,dim_758,dim_759,dim_760,dim_761,dim_762,dim_763,dim_764,dim_765,dim_766,dim_767,dim_768,dim_769,dim_770,dim_771,dim_772,dim_773,dim_774,dim_775,dim_776,dim_777,dim_778,dim_779,dim_780,dim_781,dim_782,dim_783,dim_784,dim_785,dim_786,dim_787,dim_788,dim_789,dim_790,dim_791,dim_792,dim_793,dim_794,dim_795,dim_796,dim_797,dim_798,dim_799,dim_800,dim_801,dim_802,dim_803,dim_804,dim_805,dim_806,dim_807,dim_808,dim_809,dim_810,dim_811,dim_812,dim_813,dim_814,dim_815,dim_816,dim_817,dim_818,dim_819,dim_820,dim_821,dim_822,dim_823,dim_824,dim_825,dim_826,dim_827,dim_828,dim_829,dim_830,dim_831,dim_832,dim_833,dim_834,dim_835,dim_836,dim_837,dim_838,dim_839,dim_840,dim_841,dim_842,dim_843,dim_844,dim_845,dim_846,dim_847,dim_848,dim_849,dim_850,dim_851,dim_852,dim_853,dim_854,dim_855,dim_856,dim_857,dim_858,dim_859,dim_860,dim_861,dim_862,dim_863
u001,-0.10285366326570511,-0.14112240076065063,0.24643810093402863,0.005162485875189304,0.10493803769350052,-0.23918667435646057,0.1966647207736969,0.5076127052307129,-0.30216941237449646,-0.35752975940704346,0.29312556982040405,-0.4928848147392273,0.06376585364341736,0.559687077999115,-0.3473609685897827,0.19691641628742218,0.3601917624473572,-0.16077551245689392,-0.07365699112415314,0.18863147497177124,0.07321549952030182,-0.23131167888641357,0.1380416303873062,0.22265203297138214,0.02160189300775528,-0.22145292162895203,-0.005103651434183121,0.004022355657070875,-0.17511168122291565,-0.19208501279354095,0.16326218843460083,0.08472390472888947,-0.45769867300987244,0.012053527869284153,-0.1288805454969406,-0.07587571442127228,-0.15326356887817383,0.1945844441652298,-0.3883189558982849,0.07906874269247055,-0.11770284920930862,-0.41028469800949097,-0.04442032799124718,0.3329254388809204,-0.35047200322151184,-0.18893010914325714,-0.005359203554689884,0.08374135196208954,-0.05100419744849205,-0.23831281065940857,0.038387637585401535,-0.007740688044577837,0.02741910144686699,-0.23070766031742096,-0.015382340177893639,0.5832220315933228,-0.0956822857260704,-0.06463272124528885,-0.3235040009021759,-0.025312960147857666,0.4519297480583191,-0.20737026631832123,-0.11904338747262955,-0.6054005026817322,0.1334308385848999,0.1460932195186615,-0.0774948000907898,-0.022540874779224396,-0.15825128555297852,0.14272814989089966,-0.3137408494949341,-0.07247184216976166,-0.09790238738059998,0.09998079389333725,-0.33803805708885193,-0.02719908207654953,-0.20459850132465363,0.24940045177936554,0.0946730524301529,-0.23621658980846405,-0.18713341653347015,0.2648231089115143,-0.25885871052742004,0.28999483585357666,0.15835559368133545,-0.02886023372411728,0.07752068340778351,0.028944237157702446,-0.30047640204429626,0.4658173620700836,0.3972548246383667,-0.2199503481388092,0.1436135470867157,0.43973201513290405,-0.002655808813869953,-0.004442254547029734,0.23766757547855377,0.043309472501277924,0.2168329507112503,0.3338598608970642,0.2672206461429596,-0.20881372690200806,0.06961814314126968,0.16096271574497223,0.18957021832466125,-0.21515125036239624,0.006715219002217054,0.07612639665603638,-0.08322428166866302,-0.2078157365322113,0.011361553333699703,0.039937250316143036,0.0016746893525123596,-0.12845738232135773,-0.5092900395393372,-0.06803473830223083,0.21806232631206512,-0.21908289194107056,0.05528929829597473,0.06312163919210434,-0.2802014946937561,0.01635533571243286,0.08808045089244843,0.7717703580856323,-0.21480271220207214,0.2534123659133911,-0.25410228967666626,0.06979157775640488,0.1870737224817276,-0.005143006797879934,0.13211345672607422,0.33892789483070374,-0.024195443838834763,-0.2546376883983612,0.0383027158677578,-0.06466834992170334,0.10674817115068436,-0.4738043248653412,-0.4992821514606476,0.03930675610899925,-0.07742264866828918,-0.08408568799495697,0.16669398546218872,0.2013651579618454,-0.11944430321455002,0.02345617115497589,-0.07268604636192322,-0.10218261927366257,-0.07032681256532669,0.14761286973953247,0.2134416550397873,-0.31674084067344666,-0.41223809123039246,-0.0623692087829113,-0.32379230856895447,0.08275072276592255,-0.5629008412361145,-0.14483875036239624,-0.004497279413044453,0.4194287955760956,0.26448577642440796,-0.06657146662473679,0.08513245731592178,0.17832253873348236,0.058519478887319565,-0.021707527339458466,-0.10555402934551239,0.04497527703642845,0.013387704268097878,0.163863405585289,-0.1950637549161911,0.16522754728794098,0.38311418890953064,-0.1868349015712738,0.1974210888147354,-0.2542988955974579,0.03977729007601738,0.12524594366550446,-0.2595904767513275,0.1992161124944687,-1.0195422172546387,0.11327166855335236,-0.0288079883903265,0.016020551323890686,0.4591793417930603,-0.05398375540971756,-0.0658290684223175,-0.14931683242321014,0.3140341341495514,-0.2372477650642395,-0.1719357669353485,-0.18755924701690674,-0.3213058412075043,-0.09873678535223007,0.43091878294944763,-0.5101794600486755,0.1947258710861206,-0.14475764334201813,-0.2553878426551819,0.09199271351099014,0.256610244512558,-0.06441185623407364,0.1681748628616333,0.24662180244922638,0.08291272819042206,0.08668303489685059,0.5425243377685547,0.16760069131851196,-0.03862352669239044,0.4222068190574646,-0.12258557230234146,0.45415231585502625,0.05408187955617905,0.19101567566394806,-0.07364697754383087,-0.2378818839788437,0.1312302052974701,-0.007577161770313978,-0.2434525191783905,0.06669367849826813,-0.04875609278678894,0.16290341317653656,-0.2819133400917053,0.6730765104293823,0.11467302590608597,0.22157041728496552,-0.051621463149785995,-0.4134489893913269,-0.0861847847700119,-0.005158526357263327,0.13630558550357819,-0.15724147856235504,0.46187764406204224,0.11127772182226181,-0.039813362061977386,0.06127817928791046,0.010076488368213177,-0.25496652722358704,-0.18655084073543549,-0.3936571180820465,-0.10620907694101334,0.07609987258911133,0.3369477391242981,0.20682910084724426,0.02795235812664032,-0.05145610123872757,0.0853324830532074,-0.22907908260822296,-0.21008485555648804,-0.40069472789764404,-0.15636344254016876,-0.30271169543266296,0.3341253399848938,-0.34189024567604065,0.0817103162407875,-0.25774404406547546,0.1696566939353943,-0.18076275289058685,-0.08987098187208176,0.06450805068016052,0.10597903281450272,0.054756276309490204,0.08983131498098373,-0.061858467757701874,-0.4282212555408478,-0.262219101190567,0.049455080181360245,0.17989149689674377,0.11969351768493652,-0.032272353768348694,0.36284080147743225,-0.2337803691625595,0.13559618592262268,0.5394577980041504,-0.056898750364780426,-0.2967067360877991,0.16951319575309753,0.2382417917251587,0.005545281805098057,-0.22527354955673218,0.14772889018058777,0.7705633044242859,0.0604875311255455,0.08075061440467834,0.19371086359024048,-0.25805866718292236,-0.16900253295898438,0.08338988572359085,-0.2148875743150711,-0.33186858892440796,-0.09340514987707138,0.07199400663375854,-0.045639585703611374,-0.23264895379543304,0.5083739757537842,0.0033453982323408127,0.11350764334201813,-0.10353594273328781,0.12759801745414734,-0.22031596302986145,-0.08148737251758575,-0.035736992955207825,0.2440768927335739,-0.1335068941116333,-0.222722589969635,0.03836669772863388,-0.21333523094654083,-0.2239433377981186,-4.301232814788818,-0.02336188592016697,0.08620195090770721,-0.22323495149612427,0.33188462257385254,-0.25247544050216675,0.3803136348724365,0.043457064777612686,-0.4279724061489105,0.21908818185329437,0.04474899545311928,-0.16372346878051758,0.34548062086105347,0.5279699563980103,0.20817959308624268,0.2692919075489044,0.4083775281906128,0.06795840710401535,-0.16093501448631287,0.4657258093357086,0.18958720564842224,-0.15795280039310455,-0.0197735745459795,-0.31274718046188354,0.3651750087738037,-0.05666998773813248,-0.0187185388058424,0.21231725811958313,-0.3917214870452881,-0.05090712010860443,0.07248707115650177,0.1857433319091797,0.206016406416893,0.2156403511762619,0.1145150288939476,0.021361788734793663,-0.009937351569533348,-0.09093263000249863,-0.03542964905500412,-0.30955249071121216,-0.32366296648979187,-0.3808806240558624,0.02509160339832306,0.08761687576770782,0.6594702005386353,-0.1051059141755104,-0.060400668531656265,-0.0020878883078694344,-0.036102037876844406,0.18178661167621613,0.32586655020713806,-0.36747506260871887,-0.10668503493070602,-0.13138331472873688,-0.07709439843893051,-0.1854897141456604,0.5808080434799194,0.2925477623939514,-0.3368951678276062,-0.5225909948348999,-0.15783537924289703,-0.010247786529362202,-0.19383637607097626,-0.20225906372070312,-0.07480763643980026,-0.0450744703412056,-0.1975368708372116,-0.27846652269363403,0.02164011262357235,0.10221687704324722,-0.05960403382778168,0.06840737909078598,-0.15451891720294952,-0.8251779675483704,-0.13130678236484528,0.2965520918369293,-0.0574679933488369,0.1093536987900734,0.12756547331809998,0.18092523515224457,0.062007587403059006,-0.20664604008197784,-0.1591891050338745,-0.04738942161202431,-0.05302872136235237,-0.074894979596138,0.10622493177652359,-0.20248755812644958,-0.43884095549583435,-0.4382530152797699,0.41580477356910706,-0.12822967767715454,0.1795419454574585,0.1627788543701172,0.17911158502101898,0.10657362639904022,0.2629639506340027,-0.1201883852481842,0.2470894604921341,-0.22671540081501007,-0.03949620574712753,0.15291999280452728,0.35152867436408997,0.10550690442323685,0.32997870445251465,-0.0659666582942009,-0.017644062638282776,0.11247357726097107,0.1361909806728363,-0.004214869346469641,0.6194230914115906,-0.5415256023406982,0.424363374710083,-0.13581380248069763,-0.10111764818429947,-0.27262791991233826,0.5322265625,0.2376932054758072,-0.12703625857830048,-0.006761120166629553,0.18746991455554962,0.3298735022544861,-0.48355916142463684,-0.24329841136932373,-0.45294591784477234,0.08001725375652313,-0.21713538467884064,-0.10688956081867218,-0.18264228105545044,0.16543255746364594,0.07856089621782303,-0.20549744367599487,0.20173029601573944,0.32083120942115784,0.0976366177201271,-0.13526490330696106,0.0675288587808609,-0.4591106176376343,0.20038236677646637,-0.15795359015464783,0.37381166219711304,-0.019009994342923164,-0.1278570592403412,-0.05259491130709648,0.021564757451415062,0.28745514154434204,-0.026106122881174088,-0.03598979488015175,-0.24138592183589935,0.1621503233909607,-0.3320521116256714,-0.3575768768787384,-0.18310721218585968,-0.12003447115421295,-0.1246563121676445,0.15965457260608673,0.23171354830265045,-0.22891774773597717,-0.23942814767360687,-0.4346277415752411,-0.18458397686481476,-0.05101520195603371,0.16978535056114197,0.5146927833557129,-0.20321430265903473,0.4781390428543091,0.03557884320616722,-0.17922012507915497,0.15736806392669678,0.19642961025238037,-0.15572600066661835,0.02823570929467678,-0.41835013031959534,-0.2899441421031952,-0.06466583907604218,0.2350793182849884,0.16349972784519196,-0.22606998682022095,-0.15100635588169098,0.21333710849285126,0.14070753753185272,-0.17077063024044037,-0.19841539859771729,0.19790321588516235,0.3959707021713257,0.28753018379211426,0.04653514549136162,-0.29563984274864197,0.0863238126039505,0.22294695675373077,0.07748402655124664,0.34653240442276,-0.4100586175918579,-0.07275561988353729,-0.11016510426998138,-0.3610306978225708,0.5230664610862732,-0.18224303424358368,-0.04932291805744171,0.08879793435335159,0.2966097295284271,0.07394059747457504,0.25871792435646057,-0.02439153753221035,0.024385245516896248,-0.27604344487190247,0.17110203206539154,0.156759575009346,-0.18010233342647552,0.020184852182865143,-0.12407439947128296,-0.2118128091096878,-0.3107077479362488,0.06987389922142029,0.16555555164813995,-0.329427570104599,0.05843795835971832,-0.06071481853723526,-0.25626105070114136,0.2047685980796814,-0.09573212265968323,0.014594263397157192,-0.10230995714664459,-0.03836975619196892,-0.6269496083259583,-0.5073660016059875,0.06993070244789124,-0.18091613054275513,-0.38167762756347656,-0.10327142477035522,0.12055319547653198,-0.07564310729503632,0.27818137407302856,0.26017823815345764,0.0902644470334053,0.31043729186058044,-0.23800122737884521,0.043587636202573776,0.1465224325656891,-0.021303169429302216,-0.36842766404151917,-0.16496892273426056,-0.017742712050676346,-0.46457916498184204,-0.27519938349723816,0.23474247753620148,-0.14114654064178467,0.6930229663848877,-0.2127392590045929,0.47891268134117126,0.05533071234822273,0.13060086965560913,-0.037189632654190063,-0.1765395998954773,-0.0005796700716018677,-0.779812216758728,-0.33844637870788574,0.1560364067554474,-0.280803382396698,-0.020425762981176376,-0.11573994904756546,-0.10519848018884659,-0.045912157744169235,-0.03197949379682541,0.17573446035385132,0.24243643879890442,0.2571626305580139,0.15310224890708923,0.1558190882205963,-0.1396607607603073,-0.059862375259399414,0.01834098808467388,0.005247028544545174,-0.3005571961402893,-0.12749561667442322,-0.015347852371633053,-0.23181024193763733,-0.6558619141578674,0.047746896743774414,-0.1840144395828247,0.11222023516893387,-0.026787178590893745,-0.0012971613323315978,-0.10699200630187988,0.05371474847197533,-0.31463271379470825,-0.016914179548621178,0.19750884175300598,0.002485578181222081,-0.13890382647514343,0.36724239587783813,0.03185810521245003,-0.1648709923028946,0.15970569849014282,0.08324454724788666,0.04470338672399521,0.1440236121416092,-0.022133516147732735,0.07781663537025452,0.2947000563144684,-0.17614689469337463,0.03635052964091301,0.12222912162542343,0.1901918351650238,-0.10414007306098938,0.28747981786727905,0.18959961831569672,-0.25499898195266724,0.4716496169567108,0.3084832429885864,-0.027924491092562675,-0.05904395505785942,0.6021990180015564,0.5570831894874573,-0.26199159026145935,-0.13287055492401123,-0.1251690685749054,-0.23113490641117096,0.08989536017179489,0.0007145618437789381,0.20074521005153656,-0.2506681978702545,0.4805716574192047,-0.08058984577655792,0.11838597804307938,0.4222661852836609,-0.3677845001220703,-0.05488475412130356,0.14769846200942993,0.4229046106338501,-0.03521259129047394,0.15366189181804657,-0.16232053935527802,0.086014024913311,-0.06860408186912537,-0.08841806650161743,-0.17497709393501282,0.20252519845962524,0.11280810087919235,-0.05994303151965141,0.15193890035152435,0.094328373670578,0.6133732795715332,0.47966426610946655,0.44416487216949463,0.07318826019763947,-0.14620168507099152,0.12796974182128906,0.5917550325393677,0.12890684604644775,0.008227488026022911,0.04743681848049164,0.1338130384683609,-0.2650216817855835,0.11639529466629028,-0.08581694960594177,0.06585180014371872,0.31750014424324036,-0.10088387876749039,0.2481209933757782,0.4386224150657654,-0.22748571634292603,-0.10314492136240005,-0.28907498717308044,0.1548067033290863,0.10238660871982574,0.21084190905094147,-0.0916389599442482,-0.28122174739837646,-0.08588457852602005,-0.10818473994731903,-0.01888359524309635,-0.13186906278133392,-0.20277783274650574,-0.1675470620393753,0.1979125440120697,0.02469303458929062,-0.434419721364975,-0.24787373840808868,0.14039477705955505,0.1992104947566986,-0.028641249984502792,-0.366434246301651,-0.13759052753448486,-0.15607787668704987,-0.4385415017604828,-0.34630268812179565,0.06693404912948608,-0.036915458738803864,-0.25074633955955505,-0.036493029445409775,-0.07006722688674927,-0.03990228846669197,-0.20502090454101562,-0.0281992107629776,-0.20424187183380127,0.2856219708919525,0.0909617617726326,0.46890681982040405,0.10724148899316788,0.11025920510292053,-0.0460163876414299,0.01779387891292572,0.02544534206390381,-0.027541814371943474,0.09316699951887131,-0.041600301861763,0.17878925800323486,-0.3579890727996826,0.04217534884810448,0.12668949365615845,0.4769848883152008,-0.7669852375984192,0.3262261152267456,-0.041866447776556015,0.017253823578357697,-0.0063997977413237095,-0.08067838102579117,-0.33200159668922424,0.14361697435379028,-0.3436339795589447,-0.05696960166096687,0.25776177644729614,0.13786183297634125,-0.0944729819893837,-0.19125409424304962,-0.43198898434638977,0.5243781805038452,-0.22179058194160461,-0.24550773203372955,0.01950082741677761,-0.11177404969930649,0.02780192159116268,-0.023818882182240486,0.06923394650220871,-0.04615912213921547,-0.3237168788909912,-0.09319300204515457,-0.24516355991363525,0.1185586228966713,0.11297158151865005,-0.11253128200769424,0.31098806858062744,0.044924817979335785,0.1294345259666443,-0.36018314957618713,-0.08195419609546661,-0.13022682070732117,-0.18832184374332428,-0.2961558401584625,0.3120797872543335,0.026356961578130722,0.1320601850748062,0.07607142627239227,0.130651593208313,-0.23410320281982422,-0.24090676009655,-0.3836534321308136,0.01187464501708746,-0.3655785620212555,0.0,0.0,0.0,0.0,0.0,0.0,0.0,0.0,0.0,0.0,0.0,0.0,0.0,0.0,0.0,0.0,0.0,0.0,0.0,0.0,0.0,0.0,0.0,0.0,0.0,0.0,0.0,0.0,0.0,0.0,0.0,0.0,0.0,0.0,0.0,0.0,0.0,0.0,0.0,0.0,0.0,0.0,0.0,0.0,0.0,0.0,0.0,0.0,0.0,0.0,0.0,0.0,0.0,0.0,0.0,0.0,0.0,0.0,0.0,0.0,0.0,0.0,0.0,0.0,0.0,0.0,0.0,0.0,0.0,0.0,0.0,0.0,0.0,0.0,0.0,0.0,0.0,0.0,0.0,0.0,0.0,0.0,0.0,0.0,0.0,0.0,0.0,0.0,0.0,0.0,0.0,0.0,0.0,0.0,0.0,0.0
u002,-0.09968715161085129,-0.14661471545696259,0.26054146885871887,0.015423974953591824,0.08092042803764343,-0.2431667000055313,0.18042418360710144,0.4957135319709778,-0.2854624092578888,-0.3349846303462982,0.2685230076313019,-0.4819076955318451,0.07211662083864212,0.521167516708374,-0.3619658648967743,0.2068430483341217,0.3413042426109314,-0.15638446807861328,-0.06920760124921799,0.1790328174829483,0.0955028161406517,-0.2416655719280243,0.13456319272518158,0.2253607213497162,0.009683982469141483,-0.20484967529773712,-8.570514910388738e-05,-0.012958752922713757,-0.1798277348279953,-0.17714115977287292,0.1730210781097412,0.06374510377645493,-0.4583218991756439,0.02362244762480259,-0.1335328072309494,-0.08534564822912216,-0.14811661839485168,0.2046073079109192,-0.36878544092178345,0.0729881003499031,-0.0971381887793541,-0.3975789248943329,-0.017921797931194305,0.3423110544681549,-0.3589479327201843,-0.1776517778635025,-0.008736131712794304,0.0959974005818367,-0.06299842149019241,-0.23057468235492706,0.021153977140784264,0.0007214077049866319,0.01021910086274147,-0.19958993792533875,-0.013109728693962097,0.5488883852958679,-0.07732733339071274,-0.06466922163963318,-0.32252514362335205,-0.0023734974674880505,0.4125194251537323,-0.20146386325359344,-0.11991368234157562,-0.578479528427124,0.13957063853740692,0.15595181286334991,-0.08007662743330002,-0.021996760740876198,-0.1559145748615265,0.1449553221464157,-0.3054937720298767,-0.07598850876092911,-0.08674685657024384,0.070356585085392,-0.331081360578537,-0.03442354127764702,-0.17720508575439453,0.2820242643356323,0.10450105369091034,-0.2354966700077057,-0.1781196892261505,0.2506205439567566,-0.26598256826400757,0.2920341193675995,0.17139172554016113,-0.0224124975502491,0.08123170584440231,-0.0015678502386435866,-0.2998708486557007,0.47058743238449097,0.381099134683609,-0.21699339151382446,0.15957608819007874,0.4292648732662201,0.005624505691230297,-0.008040857501327991,0.2170058935880661,0.03373102471232414,0.2253844439983368,0.28380730748176575,0.254032164812088,-0.19240708649158478,0.07103189080953598,0.16353526711463928,0.19879038631916046,-0.22369077801704407,-0.006035806145519018,0.052792925387620926,-0.09906157851219177,-0.18591806292533875,0.014755026437342167,0.038573164492845535,0.0013813175028190017,-0.13111615180969238,-0.5024011135101318,-0.0778614953160286,0.21463626623153687,-0.23479613661766052,0.042654331773519516,0.051971398293972015,-0.27248966693878174,0.02616194635629654,0.08415983617305756,0.7353118658065796,-0.2074037343263626,0.23595815896987915,-0.23292890191078186,0.08282320201396942,0.2007206380367279,-0.021791808307170868,0.1285952478647232,0.3296041786670685,-0.03256367892026901,-0.20994912087917328,0.034817781299352646,-0.06645522266626358,0.10794517397880554,-0.4688052535057068,-0.47584566473960876,0.04352202266454697,-0.06769958883523941,-0.03952374309301376,0.1427038609981537,0.17750266194343567,-0.128264918923378,0.02978946641087532,-0.04736178368330002,-0.10092607885599136,-0.08094272017478943,0.12182021141052246,0.2200956642627716,-0.3075624406337738,-0.4100976288318634,-0.08152826130390167,-0.28730127215385437,0.0923529714345932,-0.5414187908172607,-0.14021942019462585,-0.022039096802473068,0.40518486499786377,0.26724928617477417,-0.060886334627866745,0.07175816595554352,0.14902712404727936,0.09165611863136292,-0.03567783534526825,-0.10505715012550354,0.04643992707133293,0.030499855056405067,0.17341254651546478,-0.18003883957862854,0.1533379852771759,0.3993546664714813,-0.16032592952251434,0.20702488720417023,-0.24489326775074005,0.03431138023734093,0.12418346107006073,-0.23924167454242706,0.20397630333900452,-1.0122333765029907,0.08809695392847061,-0.03581852838397026,0.004734122660011053,0.4435756802558899,-0.08638612926006317,-0.06383229047060013,-0.1301654726266861,0.30803483724594116,-0.21295146644115448,-0.14375928044319153,-0.1809370517730713,-0.2959257662296295,-0.11706089228391647,0.40091463923454285,-0.4744411110877991,0.20903123915195465,-0.12117569148540497,-0.25020644068717957,0.08221157640218735,0.2609667479991913,-0.034306418150663376,0.15232273936271667,0.24689140915870667,0.07401334494352341,0.08364616334438324,0.568307638168335,0.15051524341106415,-0.02815782092511654,0.4054945409297943,-0.12898750603199005,0.44337815046310425,0.056921787559986115,0.1767958551645279,-0.07022276520729065,-0.22099080681800842,0.12495005875825882,-0.009925405494868755,-0.2420930415391922,0.05496623367071152,-0.05374172702431679,0.1747516542673111,-0.26042819023132324,0.6560106873512268,0.11654301732778549,0.19967585802078247,-0.042030151933431625,-0.3843385577201843,-0.07499168813228607,0.008896591141819954,0.1285245418548584,-0.15285040438175201,0.43829289078712463,0.11153015494346619,-0.02516595833003521,0.050456367433071136,-0.007683739997446537,-0.2320166379213333,-0.17827211320400238,-0.35298049449920654,-0.09114965051412582,0.08239349722862244,0.31339988112449646,0.2258099615573883,0.02992219105362892,-0.05231591686606407,0.0709894672036171,-0.19857263565063477,-0.21550415456295013,-0.3931870460510254,-0.15755358338356018,-0.31711724400520325,0.3140023946762085,-0.3305085301399231,0.07778594642877579,-0.24525168538093567,0.16723988950252533,-0.17075462639331818,-0.05580341815948486,0.08234479278326035,0.10016916692256927,0.056793712079524994,0.0654808059334755,-0.0625326856970787,-0.4168749451637268,-0.259991854429245,0.04027857631444931,0.16912534832954407,0.09377823770046234,-0.015151705592870712,0.3452446758747101,-0.22582118213176727,0.1431722193956375,0.49440714716911316,-0.07720384746789932,-0.2727195620536804,0.16797958314418793,0.2385219782590866,0.017997510731220245,-0.2201479822397232,0.1179656982421875,0.7304079532623291,0.06456916034221649,0.07616410404443741,0.17905960977077484,-0.2498386949300766,-0.1807491034269333,0.060356732457876205,-0.2228575050830841,-0.33155357837677,-0.08175839483737946,0.0702584832906723,-0.050310637801885605,-0.21249127388000488,0.4981366991996765,0.005585899110883474,0.08979281783103943,-0.11211898177862167,0.10436917841434479,-0.21322348713874817,-0.0848328247666359,-0.006578365340828896,0.26434165239334106,-0.13501504063606262,-0.2110341340303421,0.008407602086663246,-0.22682660818099976,-0.2239975780248642,-4.331698894500732,-0.026920001953840256,0.09470907598733902,-0.21618857979774475,0.3255740702152252,-0.2530297040939331,0.36890316009521484,0.04051491245627403,-0.43334242701530457,0.2358075976371765,0.04676750674843788,-0.14360085129737854,0.3143259286880493,0.526885449886322,0.21378090977668762,0.27882149815559387,0.4054502546787262,0.08733336627483368,-0.15826056897640228,0.4387821555137634,0.18538178503513336,-0.14357911050319672,-0.009436276741325855,-0.30570974946022034,0.35818132758140564,-0.053508855402469635,-0.011568103916943073,0.19908033311367035,-0.37587815523147583,-0.07350613176822662,0.07989808171987534,0.1841723471879959,0.19022175669670105,0.2184152454137802,0.13220399618148804,-0.00975172221660614,-0.008641350083053112,-0.08760524541139603,-0.03042425960302353,-0.2987537682056427,-0.3178718388080597,-0.3422132134437561,0.033046919852495193,0.09026045352220535,0.6476800441741943,-0.09649931639432907,-0.03911462053656578,0.012251254171133041,-0.01571454294025898,0.15360017120838165,0.3360225260257721,-0.3586408197879791,-0.11736959964036942,-0.08111181855201721,-0.08220629394054413,-0.20234520733356476,0.5641738772392273,0.2923022508621216,-0.3159734010696411,-0.4899134039878845,-0.17637796700000763,-0.02069101482629776,-0.17738936841487885,-0.17018769681453705,-0.08263778686523438,-0.031000232324004173,-0.21146449446678162,-0.25369179248809814,0.03053908608853817,0.08263873308897018,-0.0661589726805687,0.055157944560050964,-0.13850408792495728,-0.8231815099716187,-0.11611775308847427,0.28731778264045715,-0.0632423385977745,0.11599531769752502,0.13969102501869202,0.18187567591667175,0.05205487459897995,-0.21091000735759735,-0.14230555295944214,-0.031097974628210068,-0.0442827008664608,-0.07109108567237854,0.11818237602710724,-0.1928294450044632,-0.41984450817108154,-0.44547733664512634,0.38500073552131653,-0.12342456728219986,0.16817103326320648,0.15738630294799805,0.1457628756761551,0.12175590544939041,0.2661730945110321,-0.11395485699176788,0.23755794763565063,-0.19185763597488403,-0.05674093961715698,0.13018982112407684,0.33831730484962463,0.12254142016172409,0.30314669013023376,-0.06049063429236412,-0.02160329930484295,0.10923229902982712,0.12407674640417099,-0.00327509013004601,0.6137979030609131,-0.5263379216194153,0.39452454447746277,-0.13607926666736603,-0.09306056052446365,-0.24630822241306305,0.5125294327735901,0.2003324180841446,-0.13940490782260895,-0.007423486094921827,0.19276049733161926,0.31905263662338257,-0.4766460359096527,-0.21672183275222778,-0.4524964988231659,0.08066332340240479,-0.2382325679063797,-0.13145020604133606,-0.1691880077123642,0.144973024725914,0.0696280300617218,-0.18827934563159943,0.19269831478595734,0.2972099483013153,0.1167110949754715,-0.11165962368249893,0.05859089270234108,-0.4144061207771301,0.18705876171588898,-0.1388707011938095,0.36075925827026367,-0.021072261035442352,-0.11057999730110168,-0.05619511753320694,0.0066866944544017315,0.2679894268512726,-0.002074587857350707,-0.032295286655426025,-0.20499619841575623,0.15134017169475555,-0.3078369200229645,-0.339260458946228,-0.1749020665884018,-0.11635394394397736,-0.10570338368415833,0.16396424174308777,0.24424973130226135,-0.2236238270998001,-0.23089410364627838,-0.4123963713645935,-0.16281485557556152,-0.04594169184565544,0.18108367919921875,0.4921673536300659,-0.17383597791194916,0.4863669276237488,0.05085960775613785,-0.16353963315486908,0.12432500720024109,0.16518792510032654,-0.16081787645816803,0.03166244179010391,-0.4278430640697479,-0.2926206588745117,-0.04900883883237839,0.2248900979757309,0.18324150145053864,-0.2096250206232071,-0.16824837028980255,0.20161861181259155,0.14408615231513977,-0.14580219984054565,-0.1880597472190857,0.21854157745838165,0.38437455892562866,0.25935277342796326,0.023325884714722633,-0.26908692717552185,0.09764494746923447,0.20004543662071228,0.07889837771654129,0.3403955399990082,-0.38269466161727905,-0.05764997377991676,-0.11159566789865494,-0.34330713748931885,0.512408435344696,-0.15693315863609314,-0.0484643392264843,0.08445730060338974,0.2802310287952423,0.05538430064916611,0.24239002168178558,-0.02239014394581318,0.02079000696539879,-0.260701060295105,0.1727782040834427,0.12912392616271973,-0.17093220353126526,0.013290333561599255,-0.12206673622131348,-0.21496814489364624,-0.3034636080265045,0.083062544465065,0.15359662473201752,-0.3255564272403717,0.0508277453482151,-0.061262521892786026,-0.2505911588668823,0.20445756614208221,-0.09631871432065964,0.006581204477697611,-0.11071574687957764,-0.05450498312711716,-0.5957930088043213,-0.49565210938453674,0.06280425190925598,-0.18842855095863342,-0.37778526544570923,-0.10698728263378143,0.13054069876670837,-0.08904848247766495,0.27695032954216003,0.27152568101882935,0.07761745899915695,0.31095537543296814,-0.24879461526870728,0.06204532831907272,0.12070140987634659,-0.04034542664885521,-0.3622984290122986,-0.15296287834644318,-0.013819781132042408,-0.4246988892555237,-0.286777138710022,0.21199336647987366,-0.10643623769283295,0.6901464462280273,-0.21310213208198547,0.4724380075931549,0.06915785372257233,0.13044828176498413,-0.024671146646142006,-0.15119051933288574,0.007908263243734837,-0.7738109827041626,-0.3160240054130554,0.1394473761320114,-0.2878497540950775,-0.01419145055115223,-0.11027579009532928,-0.10252512246370316,-0.05572693422436714,-0.02253766730427742,0.1428406536579132,0.22887533903121948,0.23705075681209564,0.1188189685344696,0.14046277105808258,-0.1449728012084961,-0.06655445694923401,0.023081785067915916,0.015450533479452133,-0.25883498787879944,-0.10759332776069641,-0.03061109408736229,-0.23320357501506805,-0.6558098196983337,0.0678081288933754,-0.17136350274085999,0.11228837072849274,-0.03238845244050026,0.0026772937271744013,-0.10775016993284225,0.04730582237243652,-0.31950315833091736,-0.025645654648542404,0.18717554211616516,-0.007397586014121771,-0.12450838834047318,0.3414120376110077,0.029651718214154243,-0.15632610023021698,0.1429671198129654,0.07563981413841248,0.02956484444439411,0.10750233381986618,-0.030114343389868736,0.06822589039802551,0.2944049537181854,-0.17560169100761414,0.010220939293503761,0.1140168085694313,0.17070801556110382,-0.09987608343362808,0.2793179154396057,0.17503704130649567,-0.24779844284057617,0.4606534540653229,0.26716142892837524,-0.02721344120800495,-0.05249189957976341,0.5708959698677063,0.5392740964889526,-0.27418753504753113,-0.12032052874565125,-0.136417418718338,-0.25063270330429077,0.09710894525051117,0.010012252256274223,0.2033310979604721,-0.2364244908094406,0.46072009205818176,-0.08150329440832138,0.11858947575092316,0.38493433594703674,-0.3431345224380493,-0.050450682640075684,0.13883672654628754,0.4087119996547699,-0.024474669247865677,0.16380831599235535,-0.14705678820610046,0.07542570680379868,-0.08156760782003403,-0.10266651213169098,-0.18100284039974213,0.19734309613704681,0.10934094339609146,-0.06293334066867828,0.12586623430252075,0.08742176741361618,0.6013184189796448,0.4491519629955292,0.4151292145252228,0.055148061364889145,-0.13964588940143585,0.10020242631435394,0.5469850897789001,0.14345623552799225,-0.00492117227986455,0.023915136232972145,0.11871655285358429,-0.26787200570106506,0.09967835247516632,-0.08031120896339417,0.04792197048664093,0.31413543224334717,-0.10269526392221451,0.23158232867717743,0.43240368366241455,-0.20028620958328247,-0.09665645658969879,-0.290132611989975,0.12506596744060516,0.09349530190229416,0.2103833258152008,-0.02938002720475197,-0.2506665289402008,-0.0839584618806839,-0.0777209997177124,-0.04386664181947708,-0.12057919800281525,-0.21198707818984985,-0.13504986464977264,0.20207007229328156,0.06219451501965523,-0.3932751417160034,-0.23633646965026855,0.14261490106582642,0.19416745007038116,-0.02882249467074871,-0.3594312369823456,-0.12106867879629135,-0.1647821068763733,-0.418133944272995,-0.33715325593948364,0.08407051861286163,-0.055419884622097015,-0.23133625090122223,-0.05392500385642052,-0.09250792860984802,-0.03963968902826309,-0.210368350148201,-0.04830723628401756,-0.20121632516384125,0.2851587235927582,0.09280382096767426,0.4306827485561371,0.1104913055896759,0.09490195661783218,-0.03849603235721588,0.010311960242688656,0.06039447337388992,-0.02071792632341385,0.09949243068695068,-0.012958511710166931,0.15878674387931824,-0.3479327857494354,0.0381162203848362,0.15569764375686646,0.4492207467556,-0.7513701915740967,0.3181789517402649,-0.04101894795894623,-0.002954622032120824,-0.011764188297092915,-0.08339054137468338,-0.3134278655052185,0.14832065999507904,-0.3451324701309204,-0.07676221430301666,0.26204797625541687,0.12463701516389847,-0.08268868178129196,-0.15527552366256714,-0.40209150314331055,0.480838418006897,-0.22402013838291168,-0.2353738248348236,0.03436596691608429,-0.12341728806495667,0.020308731123805046,-0.014859369024634361,0.06385549157857895,-0.057386334985494614,-0.31203344464302063,-0.08167824149131775,-0.24418295919895172,0.12428264319896698,0.09460587799549103,-0.09566885977983475,0.30328842997550964,0.009953352622687817,0.10486577451229095,-0.34821969270706177,-0.06704574078321457,-0.11588356643915176,-0.18352018296718597,-0.2811628580093384,0.28206104040145874,0.06036161631345749,0.09330173581838608,0.06894335150718689,0.13409708440303802,-0.24312475323677063,-0.24913634359836578,-0.3770323395729065,0.018735839053988457,-0.32089143991470337,0.0,0.0,0.0,0.0,0.0,0.0,0.0,0.0,0.0,0.0,0.0,0.0,0.0,0.0,0.0,0.0,0.0,0.0,0.0,0.0,0.0,0.0,0.0,0.0,0.0,0.0,0.0,0.0,0.0,0.0,0.0,0.0,0.0,0.0,0.0,0.0,0.0,0.0,0.0,0.0,0.0,0.0,0.0,0.0,0.0,0.0,0.0,0.0,0.0,0.0,0.0,0.0,0.0,0.0,0.0,0.0,0.0,0.0,0.0,0.0,0.0,0.0,0.0,0.0,0.0,0.0,0.0,0.0,0.0,0.0,0.0,0.0,0.0,0.0,0.0,0.0,0.0,0.0,0.0,0.0,0.0,0.0,0.0,0.0,0.0,0.0,0.0,0.0,0.0,0.0,0.0,0.0,0.0,0.0,0.0,0.0
u003,-0.08932534605264664,-0.11742571741342545,0.2437659651041031,0.005956070031970739,0.10884362459182739,-0.22881169617176056,0.2000642567873001,0.5126324892044067,-0.30416303873062134,-0.34707850217819214,0.292431116104126,-0.49869441986083984,0.04725069925189018,0.5676695108413696,-0.3425336480140686,0.19442680478096008,0.37140968441963196,-0.16298626363277435,-0.08367957174777985,0.18535307049751282,0.07918522506952286,-0.2312702238559723,0.13807810842990875,0.22687022387981415,0.017109153792262077,-0.2243136167526245,-0.013995346613228321,-0.012777172960340977,-0.17923478782176971,-0.20451760292053223,0.16475193202495575,0.08709275722503662,-0.4487282633781433,0.01665005460381508,-0.13468776643276215,-0.07188491523265839,-0.16269883513450623,0.19816233217716217,-0.3817684054374695,0.07904788106679916,-0.11406276375055313,-0.412273108959198,-0.05567537993192673,0.33265846967697144,-0.34946709871292114,-0.19719550013542175,0.015538028441369534,0.09162848442792892,-0.06460577994585037,-0.24726223945617676,0.049909558147192,0.004912967793643475,0.04627516493201256,-0.23713181912899017,-0.01758255995810032,0.5849702954292297,-0.09503575414419174,-0.06451176851987839,-0.31693315505981445,-0.024811355397105217,0.4515605568885803,-0.2034795582294464,-0.11791739612817764,-0.6183022260665894,0.12094827741384506,0.1512557417154312,-0.07073841243982315,-0.011529816314578056,-0.16700479388237,0.13543549180030823,-0.31548768281936646,-0.07913978397846222,-0.09509306401014328,0.10251624137163162,-0.33794331550598145,-0.026425810530781746,-0.19812177121639252,0.24648387730121613,0.093813955783844,-0.24215202033519745,-0.18633630871772766,0.2739342451095581,-0.2517274022102356,0.2812221944332123,0.15843236446380615,-0.037080347537994385,0.07870256155729294,0.031310804188251495,-0.29392194747924805,0.4629383087158203,0.39443907141685486,-0.21647393703460693,0.14646974205970764,0.44435542821884155,-0.0005483186687342823,-0.015135412104427814,0.2372540682554245,0.0410299077630043,0.20761238038539886,0.3400539457798004,0.2674626410007477,-0.20254039764404297,0.0702369436621666,0.16104112565517426,0.20307014882564545,-0.21634216606616974,0.017697473987936974,0.08912575244903564,-0.09066738933324814,-0.21198616921901703,-0.0005965377786196768,0.05174897238612175,-0.00010104291141033173,-0.1379062682390213,-0.5103441476821899,-0.07465173304080963,0.21431958675384521,-0.23437370359897614,0.056747619062662125,0.055958092212677,-0.28679513931274414,0.024872692301869392,0.08322250097990036,0.7663952708244324,-0.22139061987400055,0.25857365131378174,-0.25583916902542114,0.059390224516391754,0.18302682042121887,0.005033094435930252,0.136134073138237,0.3427268862724304,-0.016523059457540512,-0.26469138264656067,0.04350167512893677,-0.07682158797979355,0.10894119739532471,-0.4645267426967621,-0.494645893573761,0.03938910737633705,-0.09215231984853745,-0.10152579843997955,0.16198544204235077,0.21733474731445312,-0.1303931027650833,0.024049127474427223,-0.08059968054294586,-0.0872529149055481,-0.0738978460431099,0.14999224245548248,0.20177960395812988,-0.3115549087524414,-0.4121132791042328,-0.06199658289551735,-0.31579098105430603,0.07520235329866409,-0.569412112236023,-0.15689755976200104,0.00872302521020174,0.4175793528556824,0.2737720310688019,-0.04860496148467064,0.07360206544399261,0.1688963919878006,0.05197877436876297,-0.015026201494038105,-0.11170142143964767,0.052876852452754974,0.014274351298809052,0.1677870899438858,-0.1952107697725296,0.15835072100162506,0.3745117485523224,-0.19857358932495117,0.18763788044452667,-0.25245875120162964,0.0420653410255909,0.12011990696191788,-0.2569904923439026,0.20160388946533203,-1.0190151929855347,0.12365613132715225,-0.028058916330337524,0.0120844766497612,0.4413725733757019,-0.05512240529060364,-0.060855936259031296,-0.1463729292154312,0.3126106560230255,-0.24498338997364044,-0.18723516166210175,-0.19337499141693115,-0.32653698325157166,-0.08243156224489212,0.43019968271255493,-0.5103060603141785,0.1814289391040802,-0.13256174325942993,-0.23516996204853058,0.08931974321603775,0.2503838539123535,-0.061850108206272125,0.17197947204113007,0.2534935176372528,0.07491954416036606,0.08422939479351044,0.5366732478141785,0.1712554693222046,-0.04431847482919693,0.42674094438552856,-0.10983455181121826,0.4522835910320282,0.04583548754453659,0.191415935754776,-0.07877771556377411,-0.23223401606082916,0.1284901201725006,-0.020484331995248795,-0.249039888381958,0.06355486810207367,-0.05397600308060646,0.14468537271022797,-0.2872472107410431,0.6667835116386414,0.11511019617319107,0.24068590998649597,-0.05681662634015083,-0.41186898946762085,-0.08163561671972275,-0.013456806540489197,0.13425791263580322,-0.15433157980442047,0.4734013080596924,0.12824741005897522,-0.04477967694401741,0.06527767330408096,0.0028278769459575415,-0.2685897946357727,-0.19640766084194183,-0.3959372937679291,-0.11635781079530716,0.06844969838857651,0.3413681983947754,0.20208844542503357,0.036619655787944794,-0.060321275144815445,0.08494731038808823,-0.23189282417297363,-0.22004835307598114,-0.3855931758880615,-0.15233361721038818,-0.2957404553890228,0.3230609595775604,-0.3391716778278351,0.08798211812973022,-0.25210776925086975,0.17900331318378448,-0.18584704399108887,-0.09085007011890411,0.07015147060155869,0.10000570863485336,0.06488099694252014,0.10302280634641647,-0.0633644089102745,-0.4279126226902008,-0.26602524518966675,0.05531353875994682,0.1813548058271408,0.11860339343547821,-0.02894595079123974,0.3662424087524414,-0.24163471162319183,0.12309789657592773,0.5503122210502625,-0.05248027294874191,-0.30455806851387024,0.169966921210289,0.23126055300235748,0.0047367471270263195,-0.22581134736537933,0.148917093873024,0.7688658833503723,0.05191619321703911,0.09232979267835617,0.19156061112880707,-0.2617948651313782,-0.16561391949653625,0.08875454217195511,-0.21476304531097412,-0.3370864689350128,-0.09537255018949509,0.08618248999118805,-0.042075563222169876,-0.2358023077249527,0.5018158555030823,-0.009461021982133389,0.13526521623134613,-0.10851980000734329,0.136034294962883,-0.22905896604061127,-0.07417503744363785,-0.04642140865325928,0.23433104157447815,-0.12306858599185944,-0.2276306003332138,0.039184413850307465,-0.19341866672039032,-0.2309892326593399,-4.301429748535156,-0.024587025865912437,0.0993308499455452,-0.23122109472751617,0.32861024141311646,-0.24758122861385345,0.379999577999115,0.04265298321843147,-0.42736464738845825,0.22512713074684143,0.04051780700683594,-0.16029217839241028,0.3459104895591736,0.5217519998550415,0.2071276754140854,0.25340303778648376,0.39529532194137573,0.07074782997369766,-0.15266814827919006,0.4702024757862091,0.1873234659433365,-0.15289390087127686,-0.02146279439330101,-0.30915185809135437,0.3605276644229889,-0.04824014753103256,-0.02340366318821907,0.21734611690044403,-0.3905760645866394,-0.03986898809671402,0.07743936032056808,0.18180520832538605,0.21031877398490906,0.2198808491230011,0.10579146444797516,0.025314727798104286,-0.01677870936691761,-0.09365881979465485,-0.03410443291068077,-0.30528250336647034,-0.3302213251590729,-0.3971385657787323,0.030230114236474037,0.0775686725974083,0.6649830937385559,-0.10025771707296371,-0.07554443925619125,-0.013208136893808842,-0.039238203316926956,0.17699094116687775,0.31886282563209534,-0.36200323700904846,-0.09920885413885117,-0.12057004868984222,-0.07210405170917511,-0.1808774769306183,0.5785121321678162,0.30636709928512573,-0.3527754247188568,-0.5307551026344299,-0.1414737105369568,-0.012028488330543041,-0.2033938318490982,-0.20822326838970184,-0.06809666752815247,-0.05407143384218216,-0.20744933187961578,-0.28248387575149536,0.026294944807887077,0.10672424733638763,-0.05585668236017227,0.0639001876115799,-0.15581759810447693,-0.8283935785293579,-0.12346111238002777,0.29434090852737427,-0.06402713805437088,0.11486422270536423,0.11686880141496658,0.17306523025035858,0.05657835677266121,-0.18787159025669098,-0.16182862222194672,-0.06093220040202141,-0.05102022364735603,-0.08396340906620026,0.08257357031106949,-0.19242428243160248,-0.4515593349933624,-0.428004652261734,0.4185081124305725,-0.11456899344921112,0.17753782868385315,0.15603139996528625,0.17985062301158905,0.11893781274557114,0.26670441031455994,-0.1101023331284523,0.2581093907356262,-0.20858125388622284,-0.03678327053785324,0.1488829106092453,0.35918840765953064,0.10523541271686554,0.32469096779823303,-0.06772896647453308,-0.02418431080877781,0.11143297702074051,0.13891355693340302,-0.005989017430692911,0.6147775053977966,-0.5434920191764832,0.4343538284301758,-0.13965313136577606,-0.10224556922912598,-0.2671513259410858,0.5413938760757446,0.24853573739528656,-0.13584229350090027,-0.012052769772708416,0.18792857229709625,0.3306454122066498,-0.4883117973804474,-0.24748383462429047,-0.4544582664966583,0.08166319876909256,-0.21240003407001495,-0.09436483681201935,-0.17841458320617676,0.1645917445421219,0.07106980681419373,-0.20566900074481964,0.19909434020519257,0.3180679380893707,0.09113956242799759,-0.14367009699344635,0.062056515365839005,-0.45383238792419434,0.20603050291538239,-0.1609778106212616,0.3840397298336029,-0.03095136396586895,-0.12348191440105438,-0.03239895775914192,0.016211125999689102,0.2863992750644684,-0.015787292271852493,-0.04041563346982002,-0.24989856779575348,0.14602386951446533,-0.3356238901615143,-0.366936594247818,-0.17049627006053925,-0.0985146015882492,-0.12450069934129715,0.1696888655424118,0.2338210493326187,-0.22271132469177246,-0.23731128871440887,-0.43542686104774475,-0.18363581597805023,-0.06023356691002846,0.1708402782678604,0.5110992193222046,-0.20654504001140594,0.4857640266418457,0.025568794459104538,-0.16950762271881104,0.16328801214694977,0.1898369938135147,-0.1471826136112213,0.035534750670194626,-0.40764060616493225,-0.2771526873111725,-0.05998903512954712,0.24221372604370117,0.15285708010196686,-0.23300932347774506,-0.14732244610786438,0.22429874539375305,0.12793579697608948,-0.17739813029766083,-0.19280672073364258,0.1980677992105484,0.39092496037483215,0.2984810769557953,0.05159265920519829,-0.29043811559677124,0.08016864210367203,0.20829994976520538,0.061149269342422485,0.33800992369651794,-0.4031519889831543,-0.08013956993818283,-0.10898691415786743,-0.3568713665008545,0.5173391699790955,-0.1902417093515396,-0.04192935675382614,0.09191951900720596,0.3027169704437256,0.0787658765912056,0.2564675509929657,-0.02649679407477379,0.03500545769929886,-0.2705979645252228,0.1796843558549881,0.16483700275421143,-0.1779826581478119,0.025921856984496117,-0.13373872637748718,-0.20384640991687775,-0.3177049160003662,0.07120627909898758,0.1669112741947174,-0.3300773501396179,0.053094975650310516,-0.05481943115592003,-0.24921764433383942,0.2045537382364273,-0.09139622002840042,0.028303096070885658,-0.09617628157138824,-0.04558979347348213,-0.6440320611000061,-0.5027312636375427,0.06626859307289124,-0.18831075727939606,-0.38263750076293945,-0.09623537957668304,0.11534035205841064,-0.08594673871994019,0.26455622911453247,0.2545413076877594,0.09543049335479736,0.29739025235176086,-0.21887508034706116,0.047151315957307816,0.15723061561584473,-0.020889971405267715,-0.3666927218437195,-0.1676761656999588,-0.01626576855778694,-0.4604850113391876,-0.2672690153121948,0.2412504404783249,-0.14405468106269836,0.6771170496940613,-0.2052348405122757,0.4766283333301544,0.057858098298311234,0.12109023332595825,-0.041360028088092804,-0.1843346655368805,-0.0029672852251678705,-0.7735105156898499,-0.3473922610282898,0.14689405262470245,-0.279104083776474,-0.0148090785369277,-0.11813392490148544,-0.11855630576610565,-0.04681159183382988,-0.027988797053694725,0.174672469496727,0.23570777475833893,0.2578902840614319,0.17627616226673126,0.14879728853702545,-0.1406000852584839,-0.04464948549866676,0.02156086266040802,-0.0029762478079646826,-0.29918643832206726,-0.13012996315956116,-0.010856163688004017,-0.235955610871315,-0.6565585136413574,0.051886606961488724,-0.19211605191230774,0.1214655265212059,-0.015400545671582222,-0.0051077017560601234,-0.1068168506026268,0.05628617852926254,-0.31285032629966736,-0.00830677431076765,0.20322741568088531,0.005751908291131258,-0.1335645318031311,0.373210608959198,0.026125432923436165,-0.1564653217792511,0.17406904697418213,0.08336905390024185,0.0456874743103981,0.14762869477272034,-0.011826529167592525,0.0893179252743721,0.28042685985565186,-0.18417470157146454,0.02228957787156105,0.1251344382762909,0.19996821880340576,-0.11113607883453369,0.2819569706916809,0.1859797090291977,-0.2610795795917511,0.4729144275188446,0.3020261824131012,-0.022739365696907043,-0.06290512531995773,0.6075530648231506,0.5613566040992737,-0.25132566690444946,-0.12887190282344818,-0.12981541454792023,-0.22884176671504974,0.08489572256803513,-0.003285342827439308,0.20208437740802765,-0.24982012808322906,0.4889833629131317,-0.08579130470752716,0.1356089860200882,0.41491279006004333,-0.3539811968803406,-0.054205287247896194,0.14685283601284027,0.419357568025589,-0.031174326315522194,0.14929021894931793,-0.15346087515354156,0.09271590411663055,-0.06567855924367905,-0.09668069332838058,-0.17528510093688965,0.18754856288433075,0.10996384173631668,-0.06031935662031174,0.13887105882167816,0.09146540611982346,0.6060880422592163,0.49879351258277893,0.4434351325035095,0.08027514070272446,-0.1349785178899765,0.12819840013980865,0.6048651337623596,0.12525296211242676,-0.007136632688343525,0.06420356780290604,0.12615768611431122,-0.26708224415779114,0.10577191412448883,-0.08103495836257935,0.07732874155044556,0.31919363141059875,-0.09983706474304199,0.25169509649276733,0.43494105339050293,-0.2374236136674881,-0.11894012242555618,-0.2911422550678253,0.15557004511356354,0.09744508564472198,0.20170722901821136,-0.09861908853054047,-0.2679438889026642,-0.09094374626874924,-0.10774429887533188,-0.014893712475895882,-0.1414526402950287,-0.1920398324728012,-0.1749110221862793,0.21305273473262787,0.028361545875668526,-0.42693373560905457,-0.24382857978343964,0.1287562996149063,0.21201710402965546,-0.04232897236943245,-0.3580262362957001,-0.1387469470500946,-0.15937098860740662,-0.44757696986198425,-0.3410789370536804,0.06191891431808472,-0.023136820644140244,-0.24302007257938385,-0.04555676132440567,-0.06192803755402565,-0.028006181120872498,-0.2023305743932724,-0.02497185580432415,-0.20119628310203552,0.28688472509384155,0.08589040488004684,0.4626360833644867,0.10213402658700943,0.11375344544649124,-0.06706111133098602,0.01347388792783022,0.018312865868210793,-0.02819351851940155,0.09045873582363129,-0.04707244411110878,0.19403870403766632,-0.37610530853271484,0.03391342982649803,0.11679480224847794,0.4735358655452728,-0.7642131447792053,0.3278043270111084,-0.03442581370472908,0.010207808576524258,-0.006002339534461498,-0.07648023217916489,-0.3334549367427826,0.1370462030172348,-0.34413662552833557,-0.06395966559648514,0.25343963503837585,0.14420855045318604,-0.09265004843473434,-0.18612031638622284,-0.42529726028442383,0.5247009992599487,-0.21631518006324768,-0.25238391757011414,0.02239905297756195,-0.11284071207046509,0.03817735239863396,-0.026525691151618958,0.06694887578487396,-0.046678174287080765,-0.30431196093559265,-0.08923011273145676,-0.24391277134418488,0.11488959938287735,0.1096581369638443,-0.12855349481105804,0.313448041677475,0.05266183614730835,0.13188709318637848,-0.36059385538101196,-0.08550245314836502,-0.14008328318595886,-0.1911209374666214,-0.30976536870002747,0.30347031354904175,0.02610529400408268,0.13919785618782043,0.07282000780105591,0.12164483219385147,-0.22614336013793945,-0.244710773229599,-0.37202388048171997,0.013688848353922367,-0.36792105436325073,0.0,0.0,0.0,0.0,0.0,0.0,0.0,0.0,0.0,0.0,0.0,0.0,0.0,0.0,0.0,0.0,0.0,0.0,0.0,0.0,0.0,0.0,0.0,0.0,0.0,0.0,0.0,0.0,0.0,0.0,0.0,0.0,0.0,0.0,0.0,0.0,0.0,0.0,0.0,0.0,0.0,0.0,0.0,0.0,0.0,0.0,0.0,0.0,0.0,0.0,0.0,0.0,0.0,0.0,0.0,0.0,0.0,0.0,0.0,0.0,0.0,0.0,0.0,0.0,0.0,0.0,0.0,0.0,0.0,0.0,0.0,0.0,0.0,0.0,0.0,0.0,0.0,0.0,0.0,0.0,0.0,0.0,0.0,0.0,0.0,0.0,0.0,0.0,0.0,0.0,0.0,0.0,0.0,0.0,0.0,0.0
u004,-0.09568409621715546,-0.13108667731285095,0.24530458450317383,0.006150555796921253,0.09656442701816559,-0.2359590083360672,0.1970956176519394,0.5069097280502319,-0.3002402186393738,-0.35243678092956543,0.28837645053863525,-0.48463279008865356,0.061688072979450226,0.5579624176025391,-0.3419131636619568,0.19713245332241058,0.3609297275543213,-0.15846912562847137,-0.07979249954223633,0.18876425921916962,0.07591439038515091,-0.22744904458522797,0.14085611701011658,0.22979392111301422,0.024830903857946396,-0.2180568277835846,-0.009192580357193947,-0.012921136803925037,-0.18293774127960205,-0.2014143019914627,0.16117052733898163,0.0804743617773056,-0.442496657371521,0.014569655992090702,-0.13503997027873993,-0.07371743768453598,-0.159328892827034,0.19276519119739532,-0.3765316903591156,0.07713531702756882,-0.11201238632202148,-0.4068531095981598,-0.04825789853930473,0.32509422302246094,-0.3462240695953369,-0.1894853413105011,1.8305292542208917e-05,0.08979018032550812,-0.059311795979738235,-0.23519232869148254,0.04441018030047417,-0.0024607733357697725,0.03350509703159332,-0.2346574068069458,-0.01574205793440342,0.5786202549934387,-0.10026288777589798,-0.0636046901345253,-0.31965139508247375,-0.03278888016939163,0.4511112868785858,-0.20045238733291626,-0.11684250831604004,-0.6062807440757751,0.13123340904712677,0.15211783349514008,-0.07328075170516968,-0.010192944668233395,-0.16503797471523285,0.1378221958875656,-0.3080603778362274,-0.08766988664865494,-0.09652883559465408,0.09140125662088394,-0.33389171957969666,-0.03437449783086777,-0.20205645263195038,0.24773135781288147,0.09197475761175156,-0.23727454245090485,-0.18492400646209717,0.26918843388557434,-0.25855058431625366,0.2863786816596985,0.1590333729982376,-0.030698327347636223,0.08442425727844238,0.030242884531617165,-0.29378995299339294,0.45787152647972107,0.3910863399505615,-0.216297447681427,0.14599990844726562,0.4450708329677582,0.005970484111458063,-0.00735163688659668,0.23640745878219604,0.04070444032549858,0.20981831848621368,0.3254401981830597,0.2691004276275635,-0.20506155490875244,0.06793996691703796,0.16127097606658936,0.19265060126781464,-0.21217159926891327,0.015936309471726418,0.07508409768342972,-0.08247551321983337,-0.21291688084602356,0.009684262797236443,0.04344133660197258,-0.002813054248690605,-0.1310175359249115,-0.5037790536880493,-0.07080378383398056,0.2192082405090332,-0.2197040319442749,0.050586044788360596,0.05752965062856674,-0.28596165776252747,0.018647512421011925,0.0919085144996643,0.7651851773262024,-0.2167457789182663,0.2488139569759369,-0.25429701805114746,0.0654432401061058,0.1878267526626587,-0.006571656558662653,0.13606716692447662,0.3373246490955353,-0.01949557289481163,-0.2528200149536133,0.03961993381381035,-0.05983545258641243,0.11411529034376144,-0.47055375576019287,-0.49195024371147156,0.03872476890683174,-0.08223500102758408,-0.08235561102628708,0.15795274078845978,0.2043759673833847,-0.1264587640762329,0.019162243232131004,-0.07288476824760437,-0.0947861298918724,-0.06951615959405899,0.1400969922542572,0.2133074849843979,-0.31453996896743774,-0.41263434290885925,-0.06203870475292206,-0.31293123960494995,0.08470062911510468,-0.5598397850990295,-0.15175917744636536,-0.0014471309259533882,0.41836652159690857,0.267162948846817,-0.05906560644507408,0.07777214795351028,0.17276692390441895,0.055895667523145676,-0.02826279029250145,-0.10959682613611221,0.042749375104904175,0.015136214904487133,0.1609589010477066,-0.19382604956626892,0.16090314090251923,0.38162466883659363,-0.17858995497226715,0.19606471061706543,-0.25056830048561096,0.04025822877883911,0.1276715248823166,-0.25560319423675537,0.2027929276227951,-1.0190870761871338,0.11523762345314026,-0.027318822219967842,0.006433501839637756,0.452210932970047,-0.05152173712849617,-0.06917592138051987,-0.14845280349254608,0.314013808965683,-0.23100042343139648,-0.1746414452791214,-0.19008678197860718,-0.3155023157596588,-0.09598889201879501,0.4310203790664673,-0.5039572715759277,0.1889815330505371,-0.1445775032043457,-0.24307368695735931,0.09165740758180618,0.24818302690982819,-0.05963164195418358,0.16923096776008606,0.24402402341365814,0.07224120199680328,0.08317464590072632,0.5355767011642456,0.16714628040790558,-0.04570101946592331,0.4228190779685974,-0.1214483305811882,0.4516471028327942,0.054761797189712524,0.18580560386180878,-0.07773097604513168,-0.22909431159496307,0.1367960274219513,-0.01543125044554472,-0.25066226720809937,0.060461584478616714,-0.05321381613612175,0.15468211472034454,-0.2821907103061676,0.6662111878395081,0.11381805688142776,0.2262694239616394,-0.048855721950531006,-0.40295347571372986,-0.0850447341799736,-0.00831370335072279,0.134120374917984,-0.15051567554473877,0.4620296061038971,0.11854155361652374,-0.039140116423368454,0.061776574701070786,0.010532655753195286,-0.2591084837913513,-0.18805915117263794,-0.3909132480621338,-0.10208088904619217,0.07785405218601227,0.33973419666290283,0.2087462693452835,0.033126842230558395,-0.056485194712877274,0.08451289683580399,-0.2187233418226242,-0.20700666308403015,-0.3967517912387848,-0.15325117111206055,-0.3043249845504761,0.3263777494430542,-0.3395971357822418,0.08442316204309464,-0.25786834955215454,0.17587634921073914,-0.17794005572795868,-0.08838170766830444,0.07083287835121155,0.10303253680467606,0.05343460291624069,0.0848642960190773,-0.05745382606983185,-0.4163428246974945,-0.2563862204551697,0.04546763747930527,0.17680013179779053,0.12317224591970444,-0.028844133019447327,0.3559820055961609,-0.23529265820980072,0.13215087354183197,0.5317085385322571,-0.06159410998225212,-0.29582148790359497,0.16695554554462433,0.22910936176776886,0.009881350211799145,-0.23339597880840302,0.1405123919248581,0.7611510157585144,0.06362485140562057,0.08812142163515091,0.19926327466964722,-0.25740742683410645,-0.17039717733860016,0.08008849620819092,-0.21509981155395508,-0.3330482840538025,-0.09025943279266357,0.07569936662912369,-0.04034188389778137,-0.23260755836963654,0.5095831155776978,-0.007539033889770508,0.1156105026602745,-0.10161368548870087,0.12596559524536133,-0.21939438581466675,-0.0747646912932396,-0.03718156740069389,0.23576344549655914,-0.13139377534389496,-0.21449998021125793,0.030791446566581726,-0.20486727356910706,-0.22590388357639313,-4.310059070587158,-0.026103457435965538,0.09160783141851425,-0.21866445243358612,0.32746726274490356,-0.2571621239185333,0.37988072633743286,0.039837755262851715,-0.4300989806652069,0.21503667533397675,0.03525468707084656,-0.15881642699241638,0.34439730644226074,0.5201623439788818,0.20429585874080658,0.26154786348342896,0.40547478199005127,0.06745459139347076,-0.15442711114883423,0.46428805589675903,0.19167141616344452,-0.1572543978691101,-0.024356508627533913,-0.30506080389022827,0.3573901951313019,-0.056758347898721695,-0.012661858461797237,0.21461941301822662,-0.3897518217563629,-0.04680296778678894,0.07450518012046814,0.190409854054451,0.20702944695949554,0.22346225380897522,0.11753284186124802,0.018071282655000687,-0.010702569037675858,-0.09548287838697433,-0.03984120860695839,-0.3151773512363434,-0.3225407898426056,-0.3853667974472046,0.02588740549981594,0.08342031389474869,0.6534368395805359,-0.10183234512805939,-0.06802064180374146,-0.009355653077363968,-0.03556068241596222,0.17222660779953003,0.31805092096328735,-0.36719441413879395,-0.108830526471138,-0.11908222734928131,-0.07615470886230469,-0.18807296454906464,0.5734889507293701,0.29383566975593567,-0.3343452215194702,-0.5232300162315369,-0.15462808310985565,-0.013718727044761181,-0.19238483905792236,-0.1942719966173172,-0.0790589228272438,-0.04599832743406296,-0.19689351320266724,-0.27961406111717224,0.024280166253447533,0.10466259717941284,-0.06002483889460564,0.07241689413785934,-0.16107681393623352,-0.8231821060180664,-0.12405266612768173,0.29741930961608887,-0.06132446601986885,0.11779791116714478,0.11845425516366959,0.1846950501203537,0.05683073773980141,-0.19763140380382538,-0.15911859273910522,-0.05668964609503746,-0.054004065692424774,-0.07620561122894287,0.10201214998960495,-0.19518877565860748,-0.4356015920639038,-0.4265535771846771,0.4162099361419678,-0.11745256930589676,0.17201605439186096,0.16365817189216614,0.17726024985313416,0.11028804630041122,0.2625657618045807,-0.1119479164481163,0.24326063692569733,-0.22197411954402924,-0.04294668510556221,0.1420518308877945,0.3522891104221344,0.10888653993606567,0.32682332396507263,-0.06242063269019127,-0.020305857062339783,0.10930869728326797,0.14423273503780365,-0.004812082275748253,0.6190066933631897,-0.5371777415275574,0.42051613330841064,-0.13715504109859467,-0.09908337891101837,-0.2677481770515442,0.531655490398407,0.23980705440044403,-0.12879754602909088,-0.006616075523197651,0.18630698323249817,0.32647714018821716,-0.491692453622818,-0.23865266144275665,-0.4530675709247589,0.0835193395614624,-0.20597684383392334,-0.10687204450368881,-0.17504487931728363,0.16813892126083374,0.07851503044366837,-0.21445795893669128,0.19664187729358673,0.3197934329509735,0.09637981653213501,-0.13325169682502747,0.07042509317398071,-0.4520074427127838,0.19333021342754364,-0.15642286837100983,0.37644124031066895,-0.01973523385822773,-0.12051644176244736,-0.04207615926861763,0.018454909324645996,0.28794023394584656,-0.027520006522536278,-0.03595453500747681,-0.24563711881637573,0.16422539949417114,-0.3264126479625702,-0.3568344712257385,-0.17481644451618195,-0.11103484779596329,-0.12098073959350586,0.1667257845401764,0.2292710393667221,-0.22444406151771545,-0.23983681201934814,-0.4203636348247528,-0.18725094199180603,-0.053121477365493774,0.1699444055557251,0.5043125748634338,-0.1979026347398758,0.47772446274757385,0.03561469167470932,-0.17653559148311615,0.15558291971683502,0.1927928477525711,-0.1507074385881424,0.03376337140798569,-0.41000235080718994,-0.2874249219894409,-0.058695029467344284,0.2314552515745163,0.1658121943473816,-0.22101755440235138,-0.14465592801570892,0.21781407296657562,0.13212208449840546,-0.17183153331279755,-0.19536776840686798,0.20273809134960175,0.3946572244167328,0.2843804657459259,0.045638084411621094,-0.2927951216697693,0.08085175603628159,0.21730001270771027,0.06680379062891006,0.34113574028015137,-0.40675806999206543,-0.071928009390831,-0.11095234006643295,-0.36192435026168823,0.5208644866943359,-0.1792130172252655,-0.04345996677875519,0.09256938099861145,0.29710569977760315,0.07861607521772385,0.2537057399749756,-0.029089873656630516,0.027987755835056305,-0.27008670568466187,0.16999129951000214,0.15181493759155273,-0.1764567643404007,0.023719239979982376,-0.12654325366020203,-0.2042098194360733,-0.3137756288051605,0.07571858912706375,0.16865232586860657,-0.33271312713623047,0.055980414152145386,-0.05761680379509926,-0.2547132074832916,0.20359428226947784,-0.0939134806394577,0.01631981134414673,-0.10347972810268402,-0.0379084087908268,-0.6270673871040344,-0.5033425092697144,0.05992777645587921,-0.19163842499256134,-0.3819262981414795,-0.10035374015569687,0.12809108197689056,-0.07261515408754349,0.27387964725494385,0.2645443081855774,0.09603021293878555,0.3008657395839691,-0.22563636302947998,0.0522763691842556,0.14643211662769318,-0.024990947917103767,-0.36664363741874695,-0.16624708473682404,-0.018116677179932594,-0.45724135637283325,-0.26331183314323425,0.22907307744026184,-0.140025794506073,0.6865484714508057,-0.2067820131778717,0.47603878378868103,0.05530427023768425,0.12970799207687378,-0.03657439351081848,-0.1785437911748886,-0.0005947162280790508,-0.7817413210868835,-0.33790406584739685,0.15116623044013977,-0.28109005093574524,-0.016875827684998512,-0.1162881851196289,-0.10196395218372345,-0.04507254436612129,-0.03134885057806969,0.17382827401161194,0.2398861050605774,0.25226402282714844,0.15236754715442657,0.15152211487293243,-0.13413281738758087,-0.059579722583293915,0.016463886946439743,-0.0058508748188614845,-0.29023149609565735,-0.1215464174747467,-0.014469816349446774,-0.23452340066432953,-0.6549749374389648,0.0437794104218483,-0.19022154808044434,0.1229233592748642,-0.024726852774620056,-0.003027927363291383,-0.10667034238576889,0.05943145230412483,-0.3137243092060089,-0.021487420424818993,0.19696104526519775,-0.0005090410704724491,-0.12531618773937225,0.36533811688423157,0.025328701362013817,-0.15750738978385925,0.16854028403759003,0.07763472944498062,0.044885046780109406,0.15462985634803772,-0.022263482213020325,0.07138500362634659,0.2886417806148529,-0.17699532210826874,0.027968915179371834,0.12172192335128784,0.19003137946128845,-0.11401478946208954,0.28641360998153687,0.18690335750579834,-0.2502150237560272,0.460768461227417,0.2985912263393402,-0.02863932214677334,-0.06744138151407242,0.6043996810913086,0.5453253388404846,-0.259789377450943,-0.13105221092700958,-0.12547092139720917,-0.23071499168872833,0.0828368216753006,-0.0027630547992885113,0.20242974162101746,-0.2535916864871979,0.4767265319824219,-0.08174832910299301,0.13018788397312164,0.409249484539032,-0.35549071431159973,-0.05436190217733383,0.14952363073825836,0.41346558928489685,-0.03546365723013878,0.15633271634578705,-0.16213777661323547,0.09139086306095123,-0.06157020479440689,-0.09529534727334976,-0.17568303644657135,0.19312888383865356,0.11209044605493546,-0.05965526029467583,0.14675243198871613,0.09196394681930542,0.6064231991767883,0.47922345995903015,0.44334256649017334,0.07424208521842957,-0.14515560865402222,0.12066903710365295,0.5906423926353455,0.12967512011528015,0.004012545570731163,0.048118866980075836,0.13244636356830597,-0.26504406332969666,0.11781085282564163,-0.08965033292770386,0.0606081485748291,0.3134079873561859,-0.09761316329240799,0.24780461192131042,0.43870222568511963,-0.23087483644485474,-0.11230343580245972,-0.2920513153076172,0.15209423005580902,0.10035207867622375,0.2074136734008789,-0.08942286670207977,-0.27465081214904785,-0.08944263309240341,-0.10628336668014526,-0.02392612397670746,-0.12973196804523468,-0.2031966894865036,-0.16630613803863525,0.19905374944210052,0.028345860540866852,-0.43569380044937134,-0.2469552755355835,0.1348416805267334,0.20677202939987183,-0.029778718948364258,-0.3610861599445343,-0.13332949578762054,-0.15597425401210785,-0.4331306517124176,-0.3367612659931183,0.0637734904885292,-0.034356217831373215,-0.24869263172149658,-0.04045490548014641,-0.06978287547826767,-0.03710867837071419,-0.20174966752529144,-0.028408916667103767,-0.1981329470872879,0.2784774601459503,0.09328669309616089,0.465640127658844,0.10633112490177155,0.11056709289550781,-0.051515888422727585,0.01639179140329361,0.029160672798752785,-0.028635652735829353,0.08652441948652267,-0.04310131072998047,0.17279699444770813,-0.3619466722011566,0.03609246760606766,0.12487149238586426,0.46856066584587097,-0.7628326416015625,0.3207174241542816,-0.04606369137763977,0.012055762112140656,-0.00022780355357099324,-0.07904686778783798,-0.3260158896446228,0.1446475237607956,-0.34144192934036255,-0.06444407999515533,0.25852760672569275,0.14409296214580536,-0.09344525635242462,-0.17666424810886383,-0.4244824945926666,0.5196086764335632,-0.21647897362709045,-0.2486661821603775,0.023722922429442406,-0.10965608060359955,0.02958029881119728,-0.025502260774374008,0.06943012028932571,-0.052301425486803055,-0.31455492973327637,-0.09728442877531052,-0.24552294611930847,0.11954210698604584,0.11780001223087311,-0.11788930743932724,0.3127962648868561,0.04379161819815636,0.12310108542442322,-0.3540402352809906,-0.08033048361539841,-0.13307106494903564,-0.18539509177207947,-0.2931915521621704,0.30839046835899353,0.02943057380616665,0.12545475363731384,0.07796920090913773,0.12964306771755219,-0.23107779026031494,-0.2420138269662857,-0.3749960660934448,0.01362890750169754,-0.3674205243587494,0.0,0.0,0.0,0.0,0.0,0.0,0.0,0.0,0.0,0.0,0.0,0.0,0.0,0.0,0.0,0.0,0.0,0.0,0.0,0.0,0.0,0.0,0.0,0.0,0.0,0.0,0.0,0.0,0.0,0.0,0.0,0.0,0.0,0.0,0.0,0.0,0.0,0.0,0.0,0.0,0.0,0.0,0.0,0.0,0.0,0.0,0.0,0.0,0.0,0.0,0.0,0.0,0.0,0.0,0.0,0.0,0.0,0.0,0.0,0.0,0.0,0.0,0.0,0.0,0.0,0.0,0.0,0.0,0.0,0.0,0.0,0.0,0.0,0.0,0.0,0.0,0.0,0.0,0.0,0.0,0.0,0.0,0.0,0.0,0.0,0.0,0.0,0.0,0.0,0.0,0.0,0.0,0.0,0.0,0.0,0.0
u005,-0.09881237894296646,-0.14259004592895508,0.26653701066970825,0.01476910151541233,0.07829739153385162,-0.24652007222175598,0.17027243971824646,0.5213584303855896,-0.29770007729530334,-0.33155763149261475,0.26764988899230957,-0.49921250343322754,0.07615624368190765,0.5380174517631531,-0.3566475212574005,0.20195719599723816,0.3577139377593994,-0.1598665416240692,-0.07127548009157181,0.17983262240886688,0.09474042803049088,-0.23406751453876495,0.13130728900432587,0.22387275099754333,0.0052511137910187244,-0.21080373227596283,-0.008266939781606197,-0.02286873571574688,-0.1747146099805832,-0.1845855712890625,0.16896894574165344,0.0585051104426384,-0.452750563621521,0.03064369224011898,-0.1322450488805771,-0.08745603263378143,-0.15039770305156708,0.20494115352630615,-0.36516058444976807,0.0731784850358963,-0.09309978038072586,-0.4181913733482361,-0.00730490917339921,0.33491501212120056,-0.36941441893577576,-0.19143621623516083,-0.004535686690360308,0.09645429253578186,-0.07324274629354477,-0.23366515338420868,0.03008619137108326,0.0029807104729115963,0.017780251801013947,-0.21014563739299774,-0.010690038092434406,0.5622574687004089,-0.07730928808450699,-0.06480546295642853,-0.32569488883018494,0.010617111809551716,0.4138518273830414,-0.2003258913755417,-0.11987660080194473,-0.6003521084785461,0.14149810373783112,0.15633320808410645,-0.07386629283428192,-0.013144140131771564,-0.16963300108909607,0.14845584332942963,-0.3131085932254791,-0.08570434153079987,-0.08197116106748581,0.08192363381385803,-0.3361954092979431,-0.045727893710136414,-0.1818866729736328,0.2867225110530853,0.1045750081539154,-0.2534869611263275,-0.18503868579864502,0.2624090611934662,-0.2601827085018158,0.3005928695201874,0.16636839509010315,-0.017102472484111786,0.06312628090381622,-0.007702106609940529,-0.29710039496421814,0.49210888147354126,0.37168195843696594,-0.2228032946586609,0.1596153974533081,0.4366907775402069,-0.001507679931819439,-0.01652519404888153,0.21569767594337463,0.03525750711560249,0.2291324883699417,0.2990587651729584,0.2595207691192627,-0.1883329600095749,0.07736322283744812,0.16275060176849365,0.20232152938842773,-0.22045162320137024,-0.003173904027789831,0.05375424399971962,-0.10509831458330154,-0.18452955782413483,0.014671157114207745,0.042031485587358475,-0.001558653311803937,-0.14072296023368835,-0.505874514579773,-0.08870545774698257,0.21962855756282806,-0.24282675981521606,0.029509415850043297,0.05136484652757645,-0.2720629572868347,0.031000522896647453,0.08768858015537262,0.7477749586105347,-0.21461331844329834,0.24108240008354187,-0.23927870392799377,0.09438343346118927,0.20744960010051727,-0.01708262227475643,0.12379691749811172,0.33319783210754395,-0.024236353114247322,-0.22524122893810272,0.042256422340869904,-0.07422444969415665,0.10774049162864685,-0.47555631399154663,-0.4947853982448578,0.05309011787176132,-0.08872605860233307,-0.04339911788702011,0.15411189198493958,0.19176296889781952,-0.13382743299007416,0.030879037454724312,-0.05147034674882889,-0.0955866202712059,-0.08891800791025162,0.11775736510753632,0.21646635234355927,-0.3074001371860504,-0.4236690402030945,-0.0839841216802597,-0.2965107560157776,0.08296781033277512,-0.5521247982978821,-0.13357526063919067,-0.010761690326035023,0.413573682308197,0.27234405279159546,-0.059237655252218246,0.06982660293579102,0.15320321917533875,0.07454231381416321,-0.014145992696285248,-0.08922595530748367,0.04862383008003235,0.03146084025502205,0.17029164731502533,-0.17840152978897095,0.1591392457485199,0.39607396721839905,-0.16379544138908386,0.20244939625263214,-0.2459687739610672,0.04815136268734932,0.12559160590171814,-0.24426013231277466,0.2027396708726883,-1.0165785551071167,0.09899643808603287,-0.027474548667669296,-0.0036515085957944393,0.44835036993026733,-0.08652500063180923,-0.07353612780570984,-0.12952029705047607,0.30898332595825195,-0.21685375273227692,-0.15158382058143616,-0.17571552097797394,-0.3089333772659302,-0.11948768049478531,0.4062461256980896,-0.4732089340686798,0.2021622657775879,-0.12259752303361893,-0.23887427151203156,0.08420776575803757,0.26461702585220337,-0.024470726028084755,0.15091615915298462,0.2533212900161743,0.07612137496471405,0.07390826940536499,0.5724624395370483,0.16294120252132416,-0.035714954137802124,0.4132850170135498,-0.1222587525844574,0.4599003195762634,0.06111186370253563,0.18213847279548645,-0.07572720944881439,-0.21836119890213013,0.1215742751955986,-0.022415343672037125,-0.24163198471069336,0.055432550609111786,-0.057440802454948425,0.17727582156658173,-0.25814780592918396,0.6572775840759277,0.12474719434976578,0.229384645819664,-0.04712984710931778,-0.3963869512081146,-0.0849703699350357,0.016248861327767372,0.1323350965976715,-0.16594135761260986,0.4475121796131134,0.11110437661409378,-0.03176652640104294,0.060279227793216705,-0.027490349486470222,-0.24395978450775146,-0.18649297952651978,-0.3616398274898529,-0.09762105345726013,0.07929402589797974,0.31758812069892883,0.22060741484165192,0.040066614747047424,-0.0520339235663414,0.06754733622074127,-0.2144341766834259,-0.2167678326368332,-0.40612873435020447,-0.16303279995918274,-0.32687827944755554,0.31855082511901855,-0.3357767164707184,0.08240465074777603,-0.23905637860298157,0.16787239909172058,-0.1809145212173462,-0.05720691382884979,0.09343153238296509,0.1126156896352768,0.059944670647382736,0.08376599848270416,-0.06396274268627167,-0.42902469635009766,-0.25769633054733276,0.047614436596632004,0.17170071601867676,0.08387855440378189,-0.022939179092645645,0.33982616662979126,-0.22942563891410828,0.1393761783838272,0.5175151228904724,-0.0738309994339943,-0.278685599565506,0.15605124831199646,0.2253177911043167,0.013668005354702473,-0.22550269961357117,0.12357726693153381,0.7432198524475098,0.046332769095897675,0.07752400636672974,0.16822406649589539,-0.25139424204826355,-0.18372724950313568,0.06227210536599159,-0.21929459273815155,-0.3385121524333954,-0.08791529387235641,0.0725335106253624,-0.05493512004613876,-0.20898698270320892,0.5113615393638611,-0.004172465298324823,0.10413692146539688,-0.11784891784191132,0.09756890684366226,-0.2245761603116989,-0.08802705258131027,-0.009347987361252308,0.26027053594589233,-0.13838647305965424,-0.21300692856311798,0.005606491584330797,-0.20856505632400513,-0.23289254307746887,-4.315114498138428,-0.027872595936059952,0.09588807821273804,-0.22847802937030792,0.3283316195011139,-0.2576124668121338,0.3576442003250122,0.03999367728829384,-0.42820367217063904,0.2426559180021286,0.04031047597527504,-0.15317238867282867,0.3130277097225189,0.5321165919303894,0.2221241444349289,0.2732847034931183,0.40322357416152954,0.09290830045938492,-0.15273140370845795,0.4435681700706482,0.1744602918624878,-0.1576458364725113,0.004434844944626093,-0.32044798135757446,0.360105037689209,-0.06100337952375412,-0.006494281347841024,0.18894092738628387,-0.3798516094684601,-0.0604558065533638,0.08019541203975677,0.19978153705596924,0.21169671416282654,0.22557415068149567,0.12141178548336029,-0.007114227395504713,0.001972933067008853,-0.09971891343593597,-0.020785167813301086,-0.3043033480644226,-0.3137671649456024,-0.3577510118484497,0.034922558814287186,0.07526219636201859,0.6655738949775696,-0.10686870664358139,-0.04628215357661247,0.003773542121052742,-0.017634674906730652,0.15591013431549072,0.33541858196258545,-0.36387524008750916,-0.11453138291835785,-0.09629639238119125,-0.08861791342496872,-0.2074955701828003,0.5675791501998901,0.30893978476524353,-0.32958340644836426,-0.49827635288238525,-0.16809651255607605,-0.0191055741161108,-0.18282529711723328,-0.17025014758110046,-0.06856530904769897,-0.04209333285689354,-0.21803018450737,-0.24556739628314972,0.02615213952958584,0.08881751447916031,-0.06489593535661697,0.053015198558568954,-0.14899635314941406,-0.825466513633728,-0.11817947775125504,0.29149630665779114,-0.058865372091531754,0.11826710402965546,0.12314974516630173,0.18693757057189941,0.06074678152799606,-0.21340084075927734,-0.14870385825634003,-0.032003872096538544,-0.04183238744735718,-0.0740882009267807,0.10918842256069183,-0.20608928799629211,-0.433609277009964,-0.4560514986515045,0.3925779461860657,-0.11267194151878357,0.18128935992717743,0.1642741858959198,0.13379737734794617,0.12807926535606384,0.2705562710762024,-0.10732035338878632,0.2492813616991043,-0.19231078028678894,-0.060770004987716675,0.14720790088176727,0.34745243191719055,0.12541940808296204,0.30656489729881287,-0.07388617843389511,-0.031616006046533585,0.1015460267663002,0.12124842405319214,0.005652179010212421,0.6133521199226379,-0.5330736041069031,0.3993977904319763,-0.13209085166454315,-0.0940316691994667,-0.24377940595149994,0.5260920524597168,0.2187567949295044,-0.14989487826824188,-0.010536392219364643,0.1904955804347992,0.3268597424030304,-0.48735108971595764,-0.21782028675079346,-0.45901983976364136,0.0822593942284584,-0.23554302752017975,-0.13070449233055115,-0.16935674846172333,0.13994798064231873,0.07231957465410233,-0.19099509716033936,0.19409023225307465,0.29574599862098694,0.10885396599769592,-0.11150940507650375,0.05756440758705139,-0.4330765902996063,0.1904335618019104,-0.14062215387821198,0.3731788098812103,-0.017379235476255417,-0.11061042547225952,-0.03813563287258148,0.017862513661384583,0.2739693224430084,0.003933031111955643,-0.03363507613539696,-0.2264745831489563,0.14963611960411072,-0.32548606395721436,-0.3520605266094208,-0.1729525327682495,-0.11546264588832855,-0.10757532715797424,0.17223826050758362,0.24728423357009888,-0.2252698838710785,-0.22331424057483673,-0.42526403069496155,-0.15823060274124146,-0.04885333031415939,0.18952630460262299,0.512511134147644,-0.18200042843818665,0.5006707906723022,0.033951740711927414,-0.16130201518535614,0.1291326880455017,0.1624072790145874,-0.15744975209236145,0.04847737029194832,-0.4243268072605133,-0.2967509329319,-0.04406547173857689,0.23922044038772583,0.19019488990306854,-0.21815989911556244,-0.16376544535160065,0.20095326006412506,0.14556686580181122,-0.1582982838153839,-0.18200810253620148,0.2307674139738083,0.4009133279323578,0.2683674693107605,0.022963399067521095,-0.2694440186023712,0.10058611631393433,0.19933035969734192,0.07120897620916367,0.3418240249156952,-0.3826789855957031,-0.07681833952665329,-0.1217498630285263,-0.3599022626876831,0.5157228112220764,-0.16563422977924347,-0.05201150104403496,0.07943805307149887,0.28697049617767334,0.051763564348220825,0.2485324591398239,-0.016900617629289627,0.035081006586551666,-0.2619852125644684,0.18725121021270752,0.13855698704719543,-0.1743531972169876,0.02062714472413063,-0.11845332384109497,-0.22475488483905792,-0.2959745526313782,0.07702895253896713,0.15950800478458405,-0.32853659987449646,0.04767271503806114,-0.059622831642627716,-0.24934929609298706,0.19893337786197662,-0.10508286207914352,0.019786005839705467,-0.09069527685642242,-0.0633215606212616,-0.6169644594192505,-0.5105082988739014,0.06654180586338043,-0.19431842863559723,-0.38932645320892334,-0.11506332457065582,0.13358891010284424,-0.11141256242990494,0.2781791090965271,0.2686648368835449,0.07848596572875977,0.31702759861946106,-0.24393241107463837,0.05663910508155823,0.13508768379688263,-0.039782725274562836,-0.3767799735069275,-0.16327670216560364,-0.007814722135663033,-0.4267255663871765,-0.29700687527656555,0.21561864018440247,-0.10234469175338745,0.7037889957427979,-0.2035870999097824,0.47864967584609985,0.06064651161432266,0.13390973210334778,-0.03304045647382736,-0.1613442301750183,0.0028328842017799616,-0.7886028289794922,-0.3253609240055084,0.14180026948451996,-0.2945513129234314,-0.007342252880334854,-0.11946307122707367,-0.11641544103622437,-0.06326848268508911,-0.019061079248785973,0.14803747832775116,0.23347784578800201,0.24363340437412262,0.13160617649555206,0.14541587233543396,-0.1376085877418518,-0.061972323805093765,0.0235835462808609,0.007236822042614222,-0.2714546024799347,-0.10444723069667816,-0.03396958112716675,-0.22586266696453094,-0.6794478297233582,0.07218219339847565,-0.168144091963768,0.11317123472690582,-0.026086000725626945,0.004601678811013699,-0.1032310202717781,0.05455278605222702,-0.3274446427822113,-0.032430499792099,0.20086129009723663,0.011481018736958504,-0.10096576064825058,0.3501839339733124,0.0359235480427742,-0.1553175300359726,0.1563275307416916,0.0781097337603569,0.03129368647933006,0.12682978808879852,-0.035001516342163086,0.06534046679735184,0.3004518449306488,-0.17897938191890717,0.004736725240945816,0.1183757558465004,0.16959623992443085,-0.11062165349721909,0.29178956151008606,0.17960764467716217,-0.25563034415245056,0.4642431139945984,0.2789064049720764,-0.03331668674945831,-0.05125202611088753,0.5802172422409058,0.5522677302360535,-0.2727716863155365,-0.12300055474042892,-0.13882537186145782,-0.24404266476631165,0.09026511758565903,0.008433335460722446,0.2053583264350891,-0.24119256436824799,0.4607376456260681,-0.08728725463151932,0.12172319740056992,0.3901391327381134,-0.34243714809417725,-0.06011125072836876,0.14078545570373535,0.408280611038208,-0.023818233981728554,0.16493847966194153,-0.15141503512859344,0.07508260756731033,-0.0839674100279808,-0.115373395383358,-0.18284872174263,0.1945645660161972,0.11153468489646912,-0.06054670363664627,0.11693666875362396,0.09381618350744247,0.6209191083908081,0.46593135595321655,0.42577213048934937,0.06190814450383186,-0.13534015417099,0.12137265503406525,0.5609194040298462,0.1356010138988495,-0.011334210634231567,0.04333267733454704,0.12134800851345062,-0.2832149863243103,0.10539999604225159,-0.09071697294712067,0.040049027651548386,0.3158694803714752,-0.08943012356758118,0.23950034379959106,0.4445044994354248,-0.2020740956068039,-0.10344197601079941,-0.29759055376052856,0.1257495880126953,0.08755102753639221,0.2217644453048706,-0.025440404191613197,-0.24954183399677277,-0.09171206504106522,-0.08128679543733597,-0.04042942076921463,-0.12111852318048477,-0.20980535447597504,-0.14432509243488312,0.2142031341791153,0.06638329476118088,-0.3984786570072174,-0.23166804015636444,0.14027951657772064,0.20974209904670715,-0.03778776526451111,-0.3735474646091461,-0.13045866787433624,-0.17291760444641113,-0.4299502670764923,-0.3411087095737457,0.08397592604160309,-0.04853146895766258,-0.2320781648159027,-0.05480137839913368,-0.0963331088423729,-0.03140253946185112,-0.20502208173274994,-0.049450840801000595,-0.2121589332818985,0.28716710209846497,0.09679955244064331,0.43951231241226196,0.10344303399324417,0.11138590425252914,-0.057812951505184174,0.016977015882730484,0.05249048396945,-0.008817481808364391,0.09796518087387085,-0.012029169127345085,0.17609623074531555,-0.36145010590553284,0.03257524222135544,0.15369918942451477,0.4577604830265045,-0.758260190486908,0.324777752161026,-0.026134859770536423,-0.017107656225562096,-0.010120161809027195,-0.0785534530878067,-0.32486048340797424,0.1374887377023697,-0.3442828357219696,-0.0677875205874443,0.26853033900260925,0.1262238323688507,-0.07680746167898178,-0.15831327438354492,-0.40930357575416565,0.4920021593570709,-0.2274358570575714,-0.2550884783267975,0.03654995933175087,-0.1289847195148468,0.03439483419060707,-0.02185189537703991,0.05539693310856819,-0.05861736461520195,-0.31251293420791626,-0.07216215133666992,-0.24237582087516785,0.12182114273309708,0.09075535833835602,-0.09399233758449554,0.3029923141002655,0.008324104361236095,0.1124010905623436,-0.3539130687713623,-0.07387099415063858,-0.1112474799156189,-0.1908312737941742,-0.30591025948524475,0.27292266488075256,0.05714430287480354,0.11412858963012695,0.06809717416763306,0.13141141831874847,-0.24074527621269226,-0.25852447748184204,-0.37005534768104553,0.032223958522081375,-0.33391642570495605,0.0,0.0,0.0,0.0,0.0,0.0,0.0,0.0,0.0,0.0,0.0,0.0,0.0,0.0,0.0,0.0,0.0,0.0,0.0,0.0,0.0,0.0,0.0,0.0,0.0,0.0,0.0,0.0,0.0,0.0,0.0,0.0,0.0,0.0,0.0,0.0,0.0,0.0,0.0,0.0,0.0,0.0,0.0,0.0,0.0,0.0,0.0,0.0,0.0,0.0,0.0,0.0,0.0,0.0,0.0,0.0,0.0,0.0,0.0,0.0,0.0,0.0,0.0,0.0,0.0,0.0,0.0,0.0,0.0,0.0,0.0,0.0,0.0,0.0,0.0,0.0,0.0,0.0,0.0,0.0,0.0,0.0,0.0,0.0,0.0,0.0,0.0,0.0,0.0,0.0,0.0,0.0,0.0,0.0,0.0,0.0
